[
    {
        "input": [
            6.7,
            3.3,
            5.7,
            2.5
        ],
        "expected": [
            0,
            0,
            1
        ],
        "output": [
            0.00024155137330629173,
            0.025615837528853345,
            0.9799227598889523
        ],
        "error": [
            0.00024155137330629173,
            0.025615837528853345,
            -0.020077240111047723
        ],
        "mse": 0.00035310834994907377,
        "hidden_outputs": [
            0.9999853771653279,
            0.961502984174956,
            0.0028152243841160903,
            0.00016719327878817917,
            0.9534451006401725,
            0.06452135203131452
        ],
        "output_outputs": [
            0.00024155137330629173,
            0.025615837528853345,
            0.9799227598889523
        ],
        "hidden_weights": [
            {
                "weights": [
                    -0.41793678663258793,
                    -2.4273936529483087,
                    3.540145651180965,
                    1.0368765612134132
                ],
                "bias": -0.8275344801164358
            },
            {
                "weights": [
                    -0.3234080575957844,
                    1.5400609366832554,
                    -0.1421836837234019,
                    0.5208511706891418
                ],
                "bias": -0.18913109322411312
            },
            {
                "weights": [
                    2.5402733345764203,
                    2.768616434589227,
                    -3.749307384697621,
                    -5.179648371119562
                ],
                "bias": 2.2940133289486457
            },
            {
                "weights": [
                    3.4075835666295715,
                    5.323755506069874,
                    -6.026851920021459,
                    -7.532772860291816
                ],
                "bias": 4.089592178903328
            },
            {
                "weights": [
                    0.4879755188142578,
                    0.49157815047978876,
                    -0.42943413748216686,
                    0.21622375505617702
                ],
                "bias": 0.03502092248644879
            },
            {
                "weights": [
                    -0.4177475100863968,
                    -0.3701904418402033,
                    0.23325987756529232,
                    0.12514765603461595
                ],
                "bias": -0.29597577955365584
            }
        ],
        "output_weights": [
            {
                "weights": [
                    -7.165438393776559,
                    -0.6655828284626759,
                    1.2405012921429308,
                    3.5773164090670004,
                    0.11728712595857922,
                    0.16465585453131307
                ],
                "bias": -0.6494343572125104
            },
            {
                "weights": [
                    7.253609781956996,
                    -3.8919784495032754,
                    2.786646749587466,
                    4.691477339138688,
                    -4.073326966749526,
                    0.6015153291474913
                ],
                "bias": -3.313696011520528
            },
            {
                "weights": [
                    1.812114825417372,
                    0.6793189026891602,
                    -3.3011768477381365,
                    -6.019555327683663,
                    0.46312605731493706,
                    0.29802578059747625
                ],
                "bias": 0.9721371182264861
            }
        ]
    },
    {
        "input": [
            5.0,
            3.5,
            1.6,
            0.6
        ],
        "expected": [
            1,
            0,
            0
        ],
        "output": [
            0.9733408732047086,
            0.0283585957709102,
            0.0007364737193390319
        ],
        "error": [
            -0.026659126795291366,
            0.0283585957709102,
            0.0007364737193390319
        ],
        "mse": 0.0005051537963748617,
        "hidden_outputs": [
            0.005900869486165759,
            0.9751336415372893,
            0.9999998285298873,
            0.999999999992363,
            0.974370851778081,
            0.037976348476828486
        ],
        "output_outputs": [
            0.9733408732047086,
            0.0283585957709102,
            0.0007364737193390319
        ],
        "hidden_weights": [
            {
                "weights": [
                    -0.41793678663258793,
                    -2.4273936529483087,
                    3.540145651180965,
                    1.0368765612134132
                ],
                "bias": -0.8275344801164358
            },
            {
                "weights": [
                    -0.3234080575957844,
                    1.5400609366832554,
                    -0.1421836837234019,
                    0.5208511706891418
                ],
                "bias": -0.18913109322411312
            },
            {
                "weights": [
                    2.5402733345764203,
                    2.768616434589227,
                    -3.749307384697621,
                    -5.179648371119562
                ],
                "bias": 2.2940133289486457
            },
            {
                "weights": [
                    3.4075835666295715,
                    5.323755506069874,
                    -6.026851920021459,
                    -7.532772860291816
                ],
                "bias": 4.089592178903328
            },
            {
                "weights": [
                    0.4879755188142578,
                    0.49157815047978876,
                    -0.42943413748216686,
                    0.21622375505617702
                ],
                "bias": 0.03502092248644879
            },
            {
                "weights": [
                    -0.4177475100863968,
                    -0.3701904418402033,
                    0.23325987756529232,
                    0.12514765603461595
                ],
                "bias": -0.29597577955365584
            }
        ],
        "output_weights": [
            {
                "weights": [
                    -7.165438393776559,
                    -0.6655828284626759,
                    1.2405012921429308,
                    3.5773164090670004,
                    0.11728712595857922,
                    0.16465585453131307
                ],
                "bias": -0.6494343572125104
            },
            {
                "weights": [
                    7.253609781956996,
                    -3.8919784495032754,
                    2.786646749587466,
                    4.691477339138688,
                    -4.073326966749526,
                    0.6015153291474913
                ],
                "bias": -3.313696011520528
            },
            {
                "weights": [
                    1.812114825417372,
                    0.6793189026891602,
                    -3.3011768477381365,
                    -6.019555327683663,
                    0.46312605731493706,
                    0.29802578059747625
                ],
                "bias": 0.9721371182264861
            }
        ]
    },
    {
        "input": [
            6.5,
            2.8,
            4.6,
            1.5
        ],
        "expected": [
            0,
            1,
            0
        ],
        "output": [
            0.016801396361408014,
            0.9570396266215373,
            0.014110352790864873
        ],
        "error": [
            0.016801396361408014,
            -0.0429603733784627,
            0.014110352790864873
        ],
        "mse": 0.0007756608854642431,
        "hidden_outputs": [
            0.9994467565467261,
            0.8954928704986399,
            0.8237014808898228,
            0.8930921631629368,
            0.949416359147087,
            0.05802247874816162
        ],
        "output_outputs": [
            0.016801396361408014,
            0.9570396266215373,
            0.014110352790864873
        ],
        "hidden_weights": [
            {
                "weights": [
                    -0.41793678663258793,
                    -2.4273936529483087,
                    3.540145651180965,
                    1.0368765612134132
                ],
                "bias": -0.8275344801164358
            },
            {
                "weights": [
                    -0.3234080575957844,
                    1.5400609366832554,
                    -0.1421836837234019,
                    0.5208511706891418
                ],
                "bias": -0.18913109322411312
            },
            {
                "weights": [
                    2.5402733345764203,
                    2.768616434589227,
                    -3.749307384697621,
                    -5.179648371119562
                ],
                "bias": 2.2940133289486457
            },
            {
                "weights": [
                    3.4075835666295715,
                    5.323755506069874,
                    -6.026851920021459,
                    -7.532772860291816
                ],
                "bias": 4.089592178903328
            },
            {
                "weights": [
                    0.4879755188142578,
                    0.49157815047978876,
                    -0.42943413748216686,
                    0.21622375505617702
                ],
                "bias": 0.03502092248644879
            },
            {
                "weights": [
                    -0.4177475100863968,
                    -0.3701904418402033,
                    0.23325987756529232,
                    0.12514765603461595
                ],
                "bias": -0.29597577955365584
            }
        ],
        "output_weights": [
            {
                "weights": [
                    -7.165438393776559,
                    -0.6655828284626759,
                    1.2405012921429308,
                    3.5773164090670004,
                    0.11728712595857922,
                    0.16465585453131307
                ],
                "bias": -0.6494343572125104
            },
            {
                "weights": [
                    7.253609781956996,
                    -3.8919784495032754,
                    2.786646749587466,
                    4.691477339138688,
                    -4.073326966749526,
                    0.6015153291474913
                ],
                "bias": -3.313696011520528
            },
            {
                "weights": [
                    1.812114825417372,
                    0.6793189026891602,
                    -3.3011768477381365,
                    -6.019555327683663,
                    0.46312605731493706,
                    0.29802578059747625
                ],
                "bias": 0.9721371182264861
            }
        ]
    },
    {
        "input": [
            5.5,
            2.5,
            4.0,
            1.3
        ],
        "expected": [
            0,
            1,
            0
        ],
        "output": [
            0.017527779680153593,
            0.9638856427556732,
            0.013565011058371743
        ],
        "error": [
            0.017527779680153593,
            -0.03611435724432677,
            0.013565011058371743
        ],
        "mse": 0.0005984931282335367,
        "hidden_outputs": [
            0.9981922288520283,
            0.879811751919782,
            0.8109638687694055,
            0.9038434138363729,
            0.9249222879924727,
            0.08141075108721456
        ],
        "output_outputs": [
            0.017527779680153593,
            0.9638856427556732,
            0.013565011058371743
        ],
        "hidden_weights": [
            {
                "weights": [
                    -0.41793678663258793,
                    -2.4273936529483087,
                    3.540145651180965,
                    1.0368765612134132
                ],
                "bias": -0.8275344801164358
            },
            {
                "weights": [
                    -0.3234080575957844,
                    1.5400609366832554,
                    -0.1421836837234019,
                    0.5208511706891418
                ],
                "bias": -0.18913109322411312
            },
            {
                "weights": [
                    2.5402733345764203,
                    2.768616434589227,
                    -3.749307384697621,
                    -5.179648371119562
                ],
                "bias": 2.2940133289486457
            },
            {
                "weights": [
                    3.4075835666295715,
                    5.323755506069874,
                    -6.026851920021459,
                    -7.532772860291816
                ],
                "bias": 4.089592178903328
            },
            {
                "weights": [
                    0.4879755188142578,
                    0.49157815047978876,
                    -0.42943413748216686,
                    0.21622375505617702
                ],
                "bias": 0.03502092248644879
            },
            {
                "weights": [
                    -0.4177475100863968,
                    -0.3701904418402033,
                    0.23325987756529232,
                    0.12514765603461595
                ],
                "bias": -0.29597577955365584
            }
        ],
        "output_weights": [
            {
                "weights": [
                    -7.165438393776559,
                    -0.6655828284626759,
                    1.2405012921429308,
                    3.5773164090670004,
                    0.11728712595857922,
                    0.16465585453131307
                ],
                "bias": -0.6494343572125104
            },
            {
                "weights": [
                    7.253609781956996,
                    -3.8919784495032754,
                    2.786646749587466,
                    4.691477339138688,
                    -4.073326966749526,
                    0.6015153291474913
                ],
                "bias": -3.313696011520528
            },
            {
                "weights": [
                    1.812114825417372,
                    0.6793189026891602,
                    -3.3011768477381365,
                    -6.019555327683663,
                    0.46312605731493706,
                    0.29802578059747625
                ],
                "bias": 0.9721371182264861
            }
        ]
    },
    {
        "input": [
            5.4,
            3.4,
            1.7,
            0.2
        ],
        "expected": [
            1,
            0,
            0
        ],
        "output": [
            0.9735734007293252,
            0.029969203005812493,
            0.0007277586458395101
        ],
        "error": [
            -0.02642659927067481,
            0.029969203005812493,
            0.0007277586458395101
        ],
        "mse": 0.0005323493034876751,
        "hidden_outputs": [
            0.005988495142020777,
            0.9594229958661243,
            0.9999999849972603,
            0.9999999999997011,
            0.9747821308254256,
            0.032644536577637356
        ],
        "output_outputs": [
            0.9735734007293252,
            0.029969203005812493,
            0.0007277586458395101
        ],
        "hidden_weights": [
            {
                "weights": [
                    -0.41793678663258793,
                    -2.4273936529483087,
                    3.540145651180965,
                    1.0368765612134132
                ],
                "bias": -0.8275344801164358
            },
            {
                "weights": [
                    -0.3234080575957844,
                    1.5400609366832554,
                    -0.1421836837234019,
                    0.5208511706891418
                ],
                "bias": -0.18913109322411312
            },
            {
                "weights": [
                    2.5402733345764203,
                    2.768616434589227,
                    -3.749307384697621,
                    -5.179648371119562
                ],
                "bias": 2.2940133289486457
            },
            {
                "weights": [
                    3.4075835666295715,
                    5.323755506069874,
                    -6.026851920021459,
                    -7.532772860291816
                ],
                "bias": 4.089592178903328
            },
            {
                "weights": [
                    0.4879755188142578,
                    0.49157815047978876,
                    -0.42943413748216686,
                    0.21622375505617702
                ],
                "bias": 0.03502092248644879
            },
            {
                "weights": [
                    -0.4177475100863968,
                    -0.3701904418402033,
                    0.23325987756529232,
                    0.12514765603461595
                ],
                "bias": -0.29597577955365584
            }
        ],
        "output_weights": [
            {
                "weights": [
                    -7.165438393776559,
                    -0.6655828284626759,
                    1.2405012921429308,
                    3.5773164090670004,
                    0.11728712595857922,
                    0.16465585453131307
                ],
                "bias": -0.6494343572125104
            },
            {
                "weights": [
                    7.253609781956996,
                    -3.8919784495032754,
                    2.786646749587466,
                    4.691477339138688,
                    -4.073326966749526,
                    0.6015153291474913
                ],
                "bias": -3.313696011520528
            },
            {
                "weights": [
                    1.812114825417372,
                    0.6793189026891602,
                    -3.3011768477381365,
                    -6.019555327683663,
                    0.46312605731493706,
                    0.29802578059747625
                ],
                "bias": 0.9721371182264861
            }
        ]
    },
    {
        "input": [
            6.3,
            2.9,
            5.6,
            1.8
        ],
        "expected": [
            0,
            0,
            1
        ],
        "output": [
            0.0002550776813479184,
            0.036032817636787444,
            0.9778434605670765
        ],
        "error": [
            0.0002550776813479184,
            0.036032817636787444,
            -0.022156539432923505
        ],
        "mse": 0.0005964470837040654,
        "hidden_outputs": [
            0.9999862053458612,
            0.9153575111474366,
            0.01811443872633115,
            0.0018091230644712785,
            0.9254779268670505,
            0.07800144679394824
        ],
        "output_outputs": [
            0.0002550776813479184,
            0.036032817636787444,
            0.9778434605670765
        ],
        "hidden_weights": [
            {
                "weights": [
                    -0.41793678663258793,
                    -2.4273936529483087,
                    3.540145651180965,
                    1.0368765612134132
                ],
                "bias": -0.8275344801164358
            },
            {
                "weights": [
                    -0.3234080575957844,
                    1.5400609366832554,
                    -0.1421836837234019,
                    0.5208511706891418
                ],
                "bias": -0.18913109322411312
            },
            {
                "weights": [
                    2.5402733345764203,
                    2.768616434589227,
                    -3.749307384697621,
                    -5.179648371119562
                ],
                "bias": 2.2940133289486457
            },
            {
                "weights": [
                    3.4075835666295715,
                    5.323755506069874,
                    -6.026851920021459,
                    -7.532772860291816
                ],
                "bias": 4.089592178903328
            },
            {
                "weights": [
                    0.4879755188142578,
                    0.49157815047978876,
                    -0.42943413748216686,
                    0.21622375505617702
                ],
                "bias": 0.03502092248644879
            },
            {
                "weights": [
                    -0.4177475100863968,
                    -0.3701904418402033,
                    0.23325987756529232,
                    0.12514765603461595
                ],
                "bias": -0.29597577955365584
            }
        ],
        "output_weights": [
            {
                "weights": [
                    -7.165438393776559,
                    -0.6655828284626759,
                    1.2405012921429308,
                    3.5773164090670004,
                    0.11728712595857922,
                    0.16465585453131307
                ],
                "bias": -0.6494343572125104
            },
            {
                "weights": [
                    7.253609781956996,
                    -3.8919784495032754,
                    2.786646749587466,
                    4.691477339138688,
                    -4.073326966749526,
                    0.6015153291474913
                ],
                "bias": -3.313696011520528
            },
            {
                "weights": [
                    1.812114825417372,
                    0.6793189026891602,
                    -3.3011768477381365,
                    -6.019555327683663,
                    0.46312605731493706,
                    0.29802578059747625
                ],
                "bias": 0.9721371182264861
            }
        ]
    },
    {
        "input": [
            6.2,
            2.9,
            4.3,
            1.3
        ],
        "expected": [
            0,
            1,
            0
        ],
        "output": [
            0.028183569053650603,
            0.9798061850875437,
            0.0049929025946576005
        ],
        "error": [
            0.028183569053650603,
            -0.02019381491245631,
            0.0049929025946576005
        ],
        "mse": 0.0004090109338800578,
        "hidden_outputs": [
            0.9977896281003917,
            0.9119461471744521,
            0.9614738830010409,
            0.9929484639101546,
            0.948853961820233,
            0.057657242782029654
        ],
        "output_outputs": [
            0.028183569053650603,
            0.9798061850875437,
            0.0049929025946576005
        ],
        "hidden_weights": [
            {
                "weights": [
                    -0.41793678663258793,
                    -2.4273936529483087,
                    3.540145651180965,
                    1.0368765612134132
                ],
                "bias": -0.8275344801164358
            },
            {
                "weights": [
                    -0.3234080575957844,
                    1.5400609366832554,
                    -0.1421836837234019,
                    0.5208511706891418
                ],
                "bias": -0.18913109322411312
            },
            {
                "weights": [
                    2.5402733345764203,
                    2.768616434589227,
                    -3.749307384697621,
                    -5.179648371119562
                ],
                "bias": 2.2940133289486457
            },
            {
                "weights": [
                    3.4075835666295715,
                    5.323755506069874,
                    -6.026851920021459,
                    -7.532772860291816
                ],
                "bias": 4.089592178903328
            },
            {
                "weights": [
                    0.4879755188142578,
                    0.49157815047978876,
                    -0.42943413748216686,
                    0.21622375505617702
                ],
                "bias": 0.03502092248644879
            },
            {
                "weights": [
                    -0.4177475100863968,
                    -0.3701904418402033,
                    0.23325987756529232,
                    0.12514765603461595
                ],
                "bias": -0.29597577955365584
            }
        ],
        "output_weights": [
            {
                "weights": [
                    -7.165438393776559,
                    -0.6655828284626759,
                    1.2405012921429308,
                    3.5773164090670004,
                    0.11728712595857922,
                    0.16465585453131307
                ],
                "bias": -0.6494343572125104
            },
            {
                "weights": [
                    7.253609781956996,
                    -3.8919784495032754,
                    2.786646749587466,
                    4.691477339138688,
                    -4.073326966749526,
                    0.6015153291474913
                ],
                "bias": -3.313696011520528
            },
            {
                "weights": [
                    1.812114825417372,
                    0.6793189026891602,
                    -3.3011768477381365,
                    -6.019555327683663,
                    0.46312605731493706,
                    0.29802578059747625
                ],
                "bias": 0.9721371182264861
            }
        ]
    },
    {
        "input": [
            4.9,
            3.0,
            1.4,
            0.2
        ],
        "expected": [
            1,
            0,
            0
        ],
        "output": [
            0.9737851459119419,
            0.03377731090323747,
            0.0007184512426277994
        ],
        "error": [
            -0.026214854088058126,
            0.03377731090323747,
            0.0007184512426277994
        ],
        "mse": 0.000609547159633392,
        "hidden_outputs": [
            0.006732680544041285,
            0.9399960517931978,
            0.9999999474889395,
            0.999999999997736,
            0.9658706556041458,
            0.043028268540432145
        ],
        "output_outputs": [
            0.9737851459119419,
            0.03377731090323747,
            0.0007184512426277994
        ],
        "hidden_weights": [
            {
                "weights": [
                    -0.41793678663258793,
                    -2.4273936529483087,
                    3.540145651180965,
                    1.0368765612134132
                ],
                "bias": -0.8275344801164358
            },
            {
                "weights": [
                    -0.3234080575957844,
                    1.5400609366832554,
                    -0.1421836837234019,
                    0.5208511706891418
                ],
                "bias": -0.18913109322411312
            },
            {
                "weights": [
                    2.5402733345764203,
                    2.768616434589227,
                    -3.749307384697621,
                    -5.179648371119562
                ],
                "bias": 2.2940133289486457
            },
            {
                "weights": [
                    3.4075835666295715,
                    5.323755506069874,
                    -6.026851920021459,
                    -7.532772860291816
                ],
                "bias": 4.089592178903328
            },
            {
                "weights": [
                    0.4879755188142578,
                    0.49157815047978876,
                    -0.42943413748216686,
                    0.21622375505617702
                ],
                "bias": 0.03502092248644879
            },
            {
                "weights": [
                    -0.4177475100863968,
                    -0.3701904418402033,
                    0.23325987756529232,
                    0.12514765603461595
                ],
                "bias": -0.29597577955365584
            }
        ],
        "output_weights": [
            {
                "weights": [
                    -7.165438393776559,
                    -0.6655828284626759,
                    1.2405012921429308,
                    3.5773164090670004,
                    0.11728712595857922,
                    0.16465585453131307
                ],
                "bias": -0.6494343572125104
            },
            {
                "weights": [
                    7.253609781956996,
                    -3.8919784495032754,
                    2.786646749587466,
                    4.691477339138688,
                    -4.073326966749526,
                    0.6015153291474913
                ],
                "bias": -3.313696011520528
            },
            {
                "weights": [
                    1.812114825417372,
                    0.6793189026891602,
                    -3.3011768477381365,
                    -6.019555327683663,
                    0.46312605731493706,
                    0.29802578059747625
                ],
                "bias": 0.9721371182264861
            }
        ]
    },
    {
        "input": [
            6.1,
            2.8,
            4.0,
            1.3
        ],
        "expected": [
            0,
            1,
            0
        ],
        "output": [
            0.029856044902606224,
            0.9811103053513821,
            0.004566285781540306
        ],
        "error": [
            0.029856044902606224,
            -0.018889694648617894,
            0.004566285781540306
        ],
        "mse": 0.0004230183156610533,
        "hidden_outputs": [
            0.9952025942585213,
            0.9053916749424775,
            0.978353647977347,
            0.9972195410791217,
            0.9503317264958142,
            0.058138104428363924
        ],
        "output_outputs": [
            0.029856044902606224,
            0.9811103053513821,
            0.004566285781540306
        ],
        "hidden_weights": [
            {
                "weights": [
                    -0.41793678663258793,
                    -2.4273936529483087,
                    3.540145651180965,
                    1.0368765612134132
                ],
                "bias": -0.8275344801164358
            },
            {
                "weights": [
                    -0.3234080575957844,
                    1.5400609366832554,
                    -0.1421836837234019,
                    0.5208511706891418
                ],
                "bias": -0.18913109322411312
            },
            {
                "weights": [
                    2.5402733345764203,
                    2.768616434589227,
                    -3.749307384697621,
                    -5.179648371119562
                ],
                "bias": 2.2940133289486457
            },
            {
                "weights": [
                    3.4075835666295715,
                    5.323755506069874,
                    -6.026851920021459,
                    -7.532772860291816
                ],
                "bias": 4.089592178903328
            },
            {
                "weights": [
                    0.4879755188142578,
                    0.49157815047978876,
                    -0.42943413748216686,
                    0.21622375505617702
                ],
                "bias": 0.03502092248644879
            },
            {
                "weights": [
                    -0.4177475100863968,
                    -0.3701904418402033,
                    0.23325987756529232,
                    0.12514765603461595
                ],
                "bias": -0.29597577955365584
            }
        ],
        "output_weights": [
            {
                "weights": [
                    -7.165438393776559,
                    -0.6655828284626759,
                    1.2405012921429308,
                    3.5773164090670004,
                    0.11728712595857922,
                    0.16465585453131307
                ],
                "bias": -0.6494343572125104
            },
            {
                "weights": [
                    7.253609781956996,
                    -3.8919784495032754,
                    2.786646749587466,
                    4.691477339138688,
                    -4.073326966749526,
                    0.6015153291474913
                ],
                "bias": -3.313696011520528
            },
            {
                "weights": [
                    1.812114825417372,
                    0.6793189026891602,
                    -3.3011768477381365,
                    -6.019555327683663,
                    0.46312605731493706,
                    0.29802578059747625
                ],
                "bias": 0.9721371182264861
            }
        ]
    },
    {
        "input": [
            5.8,
            2.8,
            5.1,
            2.4
        ],
        "expected": [
            0,
            0,
            1
        ],
        "output": [
            0.00024473633326057876,
            0.030853360725148313,
            0.979722376253203
        ],
        "error": [
            0.00024473633326057876,
            0.030853360725148313,
            -0.02027762374679698
        ],
        "mse": 0.000454390596241869,
        "hidden_outputs": [
            0.9999723256390768,
            0.941153772828983,
            0.0011430641354548173,
            4.294671820568826e-05,
            0.9289400728338786,
            0.09402382295939546
        ],
        "output_outputs": [
            0.00024473633326057876,
            0.030853360725148313,
            0.979722376253203
        ],
        "hidden_weights": [
            {
                "weights": [
                    -0.41793678663258793,
                    -2.4273936529483087,
                    3.540145651180965,
                    1.0368765612134132
                ],
                "bias": -0.8275344801164358
            },
            {
                "weights": [
                    -0.3234080575957844,
                    1.5400609366832554,
                    -0.1421836837234019,
                    0.5208511706891418
                ],
                "bias": -0.18913109322411312
            },
            {
                "weights": [
                    2.5402733345764203,
                    2.768616434589227,
                    -3.749307384697621,
                    -5.179648371119562
                ],
                "bias": 2.2940133289486457
            },
            {
                "weights": [
                    3.4075835666295715,
                    5.323755506069874,
                    -6.026851920021459,
                    -7.532772860291816
                ],
                "bias": 4.089592178903328
            },
            {
                "weights": [
                    0.4879755188142578,
                    0.49157815047978876,
                    -0.42943413748216686,
                    0.21622375505617702
                ],
                "bias": 0.03502092248644879
            },
            {
                "weights": [
                    -0.4177475100863968,
                    -0.3701904418402033,
                    0.23325987756529232,
                    0.12514765603461595
                ],
                "bias": -0.29597577955365584
            }
        ],
        "output_weights": [
            {
                "weights": [
                    -7.165438393776559,
                    -0.6655828284626759,
                    1.2405012921429308,
                    3.5773164090670004,
                    0.11728712595857922,
                    0.16465585453131307
                ],
                "bias": -0.6494343572125104
            },
            {
                "weights": [
                    7.253609781956996,
                    -3.8919784495032754,
                    2.786646749587466,
                    4.691477339138688,
                    -4.073326966749526,
                    0.6015153291474913
                ],
                "bias": -3.313696011520528
            },
            {
                "weights": [
                    1.812114825417372,
                    0.6793189026891602,
                    -3.3011768477381365,
                    -6.019555327683663,
                    0.46312605731493706,
                    0.29802578059747625
                ],
                "bias": 0.9721371182264861
            }
        ]
    },
    {
        "input": [
            6.3,
            3.3,
            4.7,
            1.6
        ],
        "expected": [
            0,
            1,
            0
        ],
        "output": [
            0.019074164772601827,
            0.9552351911976771,
            0.011212994993345259
        ],
        "error": [
            0.019074164772601827,
            -0.04476480880232292,
            0.011212994993345259
        ],
        "mse": 0.0008311477085338925,
        "hidden_outputs": [
            0.9989167998908663,
            0.953500473619433,
            0.8212717370003373,
            0.9397505609912327,
            0.9551734414497924,
            0.054533880912884754
        ],
        "output_outputs": [
            0.019074164772601827,
            0.9552351911976771,
            0.011212994993345259
        ],
        "hidden_weights": [
            {
                "weights": [
                    -0.41793678663258793,
                    -2.4273936529483087,
                    3.540145651180965,
                    1.0368765612134132
                ],
                "bias": -0.8275344801164358
            },
            {
                "weights": [
                    -0.3234080575957844,
                    1.5400609366832554,
                    -0.1421836837234019,
                    0.5208511706891418
                ],
                "bias": -0.18913109322411312
            },
            {
                "weights": [
                    2.5402733345764203,
                    2.768616434589227,
                    -3.749307384697621,
                    -5.179648371119562
                ],
                "bias": 2.2940133289486457
            },
            {
                "weights": [
                    3.4075835666295715,
                    5.323755506069874,
                    -6.026851920021459,
                    -7.532772860291816
                ],
                "bias": 4.089592178903328
            },
            {
                "weights": [
                    0.4879755188142578,
                    0.49157815047978876,
                    -0.42943413748216686,
                    0.21622375505617702
                ],
                "bias": 0.03502092248644879
            },
            {
                "weights": [
                    -0.4177475100863968,
                    -0.3701904418402033,
                    0.23325987756529232,
                    0.12514765603461595
                ],
                "bias": -0.29597577955365584
            }
        ],
        "output_weights": [
            {
                "weights": [
                    -7.165438393776559,
                    -0.6655828284626759,
                    1.2405012921429308,
                    3.5773164090670004,
                    0.11728712595857922,
                    0.16465585453131307
                ],
                "bias": -0.6494343572125104
            },
            {
                "weights": [
                    7.253609781956996,
                    -3.8919784495032754,
                    2.786646749587466,
                    4.691477339138688,
                    -4.073326966749526,
                    0.6015153291474913
                ],
                "bias": -3.313696011520528
            },
            {
                "weights": [
                    1.812114825417372,
                    0.6793189026891602,
                    -3.3011768477381365,
                    -6.019555327683663,
                    0.46312605731493706,
                    0.29802578059747625
                ],
                "bias": 0.9721371182264861
            }
        ]
    },
    {
        "input": [
            7.3,
            2.9,
            6.3,
            1.8
        ],
        "expected": [
            0,
            0,
            1
        ],
        "output": [
            0.000260025523944207,
            0.03909791963057592,
            0.9775143791310335
        ],
        "error": [
            0.000260025523944207,
            0.03909791963057592,
            -0.02248562086896655
        ],
        "mse": 0.0006781060261916602,
        "hidden_outputs": [
            0.9999982420857808,
            0.8763100247417468,
            0.0166753580196945,
            0.0008046364301888933,
            0.9374141836221846,
            0.06155565224221457
        ],
        "output_outputs": [
            0.000260025523944207,
            0.03909791963057592,
            0.9775143791310335
        ],
        "hidden_weights": [
            {
                "weights": [
                    -0.41793678663258793,
                    -2.4273936529483087,
                    3.540145651180965,
                    1.0368765612134132
                ],
                "bias": -0.8275344801164358
            },
            {
                "weights": [
                    -0.3234080575957844,
                    1.5400609366832554,
                    -0.1421836837234019,
                    0.5208511706891418
                ],
                "bias": -0.18913109322411312
            },
            {
                "weights": [
                    2.5402733345764203,
                    2.768616434589227,
                    -3.749307384697621,
                    -5.179648371119562
                ],
                "bias": 2.2940133289486457
            },
            {
                "weights": [
                    3.4075835666295715,
                    5.323755506069874,
                    -6.026851920021459,
                    -7.532772860291816
                ],
                "bias": 4.089592178903328
            },
            {
                "weights": [
                    0.4879755188142578,
                    0.49157815047978876,
                    -0.42943413748216686,
                    0.21622375505617702
                ],
                "bias": 0.03502092248644879
            },
            {
                "weights": [
                    -0.4177475100863968,
                    -0.3701904418402033,
                    0.23325987756529232,
                    0.12514765603461595
                ],
                "bias": -0.29597577955365584
            }
        ],
        "output_weights": [
            {
                "weights": [
                    -7.165438393776559,
                    -0.6655828284626759,
                    1.2405012921429308,
                    3.5773164090670004,
                    0.11728712595857922,
                    0.16465585453131307
                ],
                "bias": -0.6494343572125104
            },
            {
                "weights": [
                    7.253609781956996,
                    -3.8919784495032754,
                    2.786646749587466,
                    4.691477339138688,
                    -4.073326966749526,
                    0.6015153291474913
                ],
                "bias": -3.313696011520528
            },
            {
                "weights": [
                    1.812114825417372,
                    0.6793189026891602,
                    -3.3011768477381365,
                    -6.019555327683663,
                    0.46312605731493706,
                    0.29802578059747625
                ],
                "bias": 0.9721371182264861
            }
        ]
    },
    {
        "input": [
            7.0,
            3.2,
            4.7,
            1.4
        ],
        "expected": [
            0,
            1,
            0
        ],
        "output": [
            0.0289532751369916,
            0.9789459452448981,
            0.004581786892485718
        ],
        "error": [
            0.0289532751369916,
            -0.021054054755101914,
            0.004581786892485718
        ],
        "mse": 0.00043418604463910646,
        "hidden_outputs": [
            0.9985995497711795,
            0.9266365679581927,
            0.9830808763722252,
            0.9977768592969277,
            0.9647115165296519,
            0.04175478636921796
        ],
        "output_outputs": [
            0.0289532751369916,
            0.9789459452448981,
            0.004581786892485718
        ],
        "hidden_weights": [
            {
                "weights": [
                    -0.41793678663258793,
                    -2.4273936529483087,
                    3.540145651180965,
                    1.0368765612134132
                ],
                "bias": -0.8275344801164358
            },
            {
                "weights": [
                    -0.3234080575957844,
                    1.5400609366832554,
                    -0.1421836837234019,
                    0.5208511706891418
                ],
                "bias": -0.18913109322411312
            },
            {
                "weights": [
                    2.5402733345764203,
                    2.768616434589227,
                    -3.749307384697621,
                    -5.179648371119562
                ],
                "bias": 2.2940133289486457
            },
            {
                "weights": [
                    3.4075835666295715,
                    5.323755506069874,
                    -6.026851920021459,
                    -7.532772860291816
                ],
                "bias": 4.089592178903328
            },
            {
                "weights": [
                    0.4879755188142578,
                    0.49157815047978876,
                    -0.42943413748216686,
                    0.21622375505617702
                ],
                "bias": 0.03502092248644879
            },
            {
                "weights": [
                    -0.4177475100863968,
                    -0.3701904418402033,
                    0.23325987756529232,
                    0.12514765603461595
                ],
                "bias": -0.29597577955365584
            }
        ],
        "output_weights": [
            {
                "weights": [
                    -7.165438393776559,
                    -0.6655828284626759,
                    1.2405012921429308,
                    3.5773164090670004,
                    0.11728712595857922,
                    0.16465585453131307
                ],
                "bias": -0.6494343572125104
            },
            {
                "weights": [
                    7.253609781956996,
                    -3.8919784495032754,
                    2.786646749587466,
                    4.691477339138688,
                    -4.073326966749526,
                    0.6015153291474913
                ],
                "bias": -3.313696011520528
            },
            {
                "weights": [
                    1.812114825417372,
                    0.6793189026891602,
                    -3.3011768477381365,
                    -6.019555327683663,
                    0.46312605731493706,
                    0.29802578059747625
                ],
                "bias": 0.9721371182264861
            }
        ]
    },
    {
        "input": [
            6.2,
            3.4,
            5.4,
            2.3
        ],
        "expected": [
            0,
            0,
            1
        ],
        "output": [
            0.0002432603360400786,
            0.02596378470056815,
            0.979459959325047
        ],
        "error": [
            0.0002432603360400786,
            0.02596378470056815,
            -0.020540040674952964
        ],
        "mse": 0.0003653568541657564,
        "hidden_outputs": [
            0.999946175158325,
            0.9698837677918766,
            0.008991465915466772,
            0.0014238030946131606,
            0.9483486141820447,
            0.06931788009494091
        ],
        "output_outputs": [
            0.0002432603360400786,
            0.02596378470056815,
            0.979459959325047
        ],
        "hidden_weights": [
            {
                "weights": [
                    -0.41793678663258793,
                    -2.4273936529483087,
                    3.540145651180965,
                    1.0368765612134132
                ],
                "bias": -0.8275344801164358
            },
            {
                "weights": [
                    -0.3234080575957844,
                    1.5400609366832554,
                    -0.1421836837234019,
                    0.5208511706891418
                ],
                "bias": -0.18913109322411312
            },
            {
                "weights": [
                    2.5402733345764203,
                    2.768616434589227,
                    -3.749307384697621,
                    -5.179648371119562
                ],
                "bias": 2.2940133289486457
            },
            {
                "weights": [
                    3.4075835666295715,
                    5.323755506069874,
                    -6.026851920021459,
                    -7.532772860291816
                ],
                "bias": 4.089592178903328
            },
            {
                "weights": [
                    0.4879755188142578,
                    0.49157815047978876,
                    -0.42943413748216686,
                    0.21622375505617702
                ],
                "bias": 0.03502092248644879
            },
            {
                "weights": [
                    -0.4177475100863968,
                    -0.3701904418402033,
                    0.23325987756529232,
                    0.12514765603461595
                ],
                "bias": -0.29597577955365584
            }
        ],
        "output_weights": [
            {
                "weights": [
                    -7.165438393776559,
                    -0.6655828284626759,
                    1.2405012921429308,
                    3.5773164090670004,
                    0.11728712595857922,
                    0.16465585453131307
                ],
                "bias": -0.6494343572125104
            },
            {
                "weights": [
                    7.253609781956996,
                    -3.8919784495032754,
                    2.786646749587466,
                    4.691477339138688,
                    -4.073326966749526,
                    0.6015153291474913
                ],
                "bias": -3.313696011520528
            },
            {
                "weights": [
                    1.812114825417372,
                    0.6793189026891602,
                    -3.3011768477381365,
                    -6.019555327683663,
                    0.46312605731493706,
                    0.29802578059747625
                ],
                "bias": 0.9721371182264861
            }
        ]
    },
    {
        "input": [
            7.2,
            3.0,
            5.8,
            1.6
        ],
        "expected": [
            0,
            0,
            1
        ],
        "output": [
            0.0004550561852530069,
            0.0914009252764506,
            0.9277172766954496
        ],
        "error": [
            0.0004550561852530069,
            0.0914009252764506,
            -0.07228272330455043
        ],
        "mse": 0.004526376101948414,
        "hidden_outputs": [
            0.9999844741238674,
            0.8919879867169668,
            0.24166191891009,
            0.0822080625293676,
            0.946769247866876,
            0.054105989172594564
        ],
        "output_outputs": [
            0.0004550561852530069,
            0.0914009252764506,
            0.9277172766954496
        ],
        "hidden_weights": [
            {
                "weights": [
                    -0.41793678663258793,
                    -2.4273936529483087,
                    3.540145651180965,
                    1.0368765612134132
                ],
                "bias": -0.8275344801164358
            },
            {
                "weights": [
                    -0.3234080575957844,
                    1.5400609366832554,
                    -0.1421836837234019,
                    0.5208511706891418
                ],
                "bias": -0.18913109322411312
            },
            {
                "weights": [
                    2.5402733345764203,
                    2.768616434589227,
                    -3.749307384697621,
                    -5.179648371119562
                ],
                "bias": 2.2940133289486457
            },
            {
                "weights": [
                    3.4075835666295715,
                    5.323755506069874,
                    -6.026851920021459,
                    -7.532772860291816
                ],
                "bias": 4.089592178903328
            },
            {
                "weights": [
                    0.4879755188142578,
                    0.49157815047978876,
                    -0.42943413748216686,
                    0.21622375505617702
                ],
                "bias": 0.03502092248644879
            },
            {
                "weights": [
                    -0.4177475100863968,
                    -0.3701904418402033,
                    0.23325987756529232,
                    0.12514765603461595
                ],
                "bias": -0.29597577955365584
            }
        ],
        "output_weights": [
            {
                "weights": [
                    -7.165438393776559,
                    -0.6655828284626759,
                    1.2405012921429308,
                    3.5773164090670004,
                    0.11728712595857922,
                    0.16465585453131307
                ],
                "bias": -0.6494343572125104
            },
            {
                "weights": [
                    7.253609781956996,
                    -3.8919784495032754,
                    2.786646749587466,
                    4.691477339138688,
                    -4.073326966749526,
                    0.6015153291474913
                ],
                "bias": -3.313696011520528
            },
            {
                "weights": [
                    1.812114825417372,
                    0.6793189026891602,
                    -3.3011768477381365,
                    -6.019555327683663,
                    0.46312605731493706,
                    0.29802578059747625
                ],
                "bias": 0.9721371182264861
            }
        ]
    },
    {
        "input": [
            5.2,
            2.7,
            3.9,
            1.4
        ],
        "expected": [
            0,
            1,
            0
        ],
        "output": [
            0.015492776761386787,
            0.9476413911810581,
            0.017930202209890726
        ],
        "error": [
            0.015492776761386787,
            -0.05235860881894194,
            0.017930202209890726
        ],
        "mse": 0.0011009807335069072,
        "hidden_outputs": [
            0.9966765622482172,
            0.9214336157677339,
            0.7511756940238722,
            0.8940279917531522,
            0.926059292922632,
            0.084489328504106
        ],
        "output_outputs": [
            0.015492776761386787,
            0.9476413911810581,
            0.017930202209890726
        ],
        "hidden_weights": [
            {
                "weights": [
                    -0.41793678663258793,
                    -2.4273936529483087,
                    3.540145651180965,
                    1.0368765612134132
                ],
                "bias": -0.8275344801164358
            },
            {
                "weights": [
                    -0.3234080575957844,
                    1.5400609366832554,
                    -0.1421836837234019,
                    0.5208511706891418
                ],
                "bias": -0.18913109322411312
            },
            {
                "weights": [
                    2.5402733345764203,
                    2.768616434589227,
                    -3.749307384697621,
                    -5.179648371119562
                ],
                "bias": 2.2940133289486457
            },
            {
                "weights": [
                    3.4075835666295715,
                    5.323755506069874,
                    -6.026851920021459,
                    -7.532772860291816
                ],
                "bias": 4.089592178903328
            },
            {
                "weights": [
                    0.4879755188142578,
                    0.49157815047978876,
                    -0.42943413748216686,
                    0.21622375505617702
                ],
                "bias": 0.03502092248644879
            },
            {
                "weights": [
                    -0.4177475100863968,
                    -0.3701904418402033,
                    0.23325987756529232,
                    0.12514765603461595
                ],
                "bias": -0.29597577955365584
            }
        ],
        "output_weights": [
            {
                "weights": [
                    -7.165438393776559,
                    -0.6655828284626759,
                    1.2405012921429308,
                    3.5773164090670004,
                    0.11728712595857922,
                    0.16465585453131307
                ],
                "bias": -0.6494343572125104
            },
            {
                "weights": [
                    7.253609781956996,
                    -3.8919784495032754,
                    2.786646749587466,
                    4.691477339138688,
                    -4.073326966749526,
                    0.6015153291474913
                ],
                "bias": -3.313696011520528
            },
            {
                "weights": [
                    1.812114825417372,
                    0.6793189026891602,
                    -3.3011768477381365,
                    -6.019555327683663,
                    0.46312605731493706,
                    0.29802578059747625
                ],
                "bias": 0.9721371182264861
            }
        ]
    },
    {
        "input": [
            5.7,
            2.8,
            4.5,
            1.3
        ],
        "expected": [
            0,
            1,
            0
        ],
        "output": [
            0.011210681924456171,
            0.9237344281969856,
            0.031245801925975886
        ],
        "error": [
            0.011210681924456171,
            -0.07626557180301441,
            0.031245801925975886
        ],
        "mse": 0.002306138989883131,
        "hidden_outputs": [
            0.9993058433936567,
            0.9102665244235522,
            0.7150973693520377,
            0.818452133362657,
            0.9270029327768835,
            0.07576650564289286
        ],
        "output_outputs": [
            0.011210681924456171,
            0.9237344281969856,
            0.031245801925975886
        ],
        "hidden_weights": [
            {
                "weights": [
                    -0.41793678663258793,
                    -2.4273936529483087,
                    3.540145651180965,
                    1.0368765612134132
                ],
                "bias": -0.8275344801164358
            },
            {
                "weights": [
                    -0.3234080575957844,
                    1.5400609366832554,
                    -0.1421836837234019,
                    0.5208511706891418
                ],
                "bias": -0.18913109322411312
            },
            {
                "weights": [
                    2.5402733345764203,
                    2.768616434589227,
                    -3.749307384697621,
                    -5.179648371119562
                ],
                "bias": 2.2940133289486457
            },
            {
                "weights": [
                    3.4075835666295715,
                    5.323755506069874,
                    -6.026851920021459,
                    -7.532772860291816
                ],
                "bias": 4.089592178903328
            },
            {
                "weights": [
                    0.4879755188142578,
                    0.49157815047978876,
                    -0.42943413748216686,
                    0.21622375505617702
                ],
                "bias": 0.03502092248644879
            },
            {
                "weights": [
                    -0.4177475100863968,
                    -0.3701904418402033,
                    0.23325987756529232,
                    0.12514765603461595
                ],
                "bias": -0.29597577955365584
            }
        ],
        "output_weights": [
            {
                "weights": [
                    -7.165438393776559,
                    -0.6655828284626759,
                    1.2405012921429308,
                    3.5773164090670004,
                    0.11728712595857922,
                    0.16465585453131307
                ],
                "bias": -0.6494343572125104
            },
            {
                "weights": [
                    7.253609781956996,
                    -3.8919784495032754,
                    2.786646749587466,
                    4.691477339138688,
                    -4.073326966749526,
                    0.6015153291474913
                ],
                "bias": -3.313696011520528
            },
            {
                "weights": [
                    1.812114825417372,
                    0.6793189026891602,
                    -3.3011768477381365,
                    -6.019555327683663,
                    0.46312605731493706,
                    0.29802578059747625
                ],
                "bias": 0.9721371182264861
            }
        ]
    },
    {
        "input": [
            5.1,
            3.3,
            1.7,
            0.5
        ],
        "expected": [
            1,
            0,
            0
        ],
        "output": [
            0.9724456751592523,
            0.03131956590280364,
            0.0007375838602532737
        ],
        "error": [
            -0.027554324840747713,
            0.03131956590280364,
            0.0007375838602532737
        ],
        "mse": 0.0005802333519068042,
        "hidden_outputs": [
            0.011742538218047006,
            0.9631162208968094,
            0.9999997994485532,
            0.99999999998645,
            0.9713623645712812,
            0.039581742170053356
        ],
        "output_outputs": [
            0.9724456751592523,
            0.03131956590280364,
            0.0007375838602532737
        ],
        "hidden_weights": [
            {
                "weights": [
                    -0.41793678663258793,
                    -2.4273936529483087,
                    3.540145651180965,
                    1.0368765612134132
                ],
                "bias": -0.8275344801164358
            },
            {
                "weights": [
                    -0.3234080575957844,
                    1.5400609366832554,
                    -0.1421836837234019,
                    0.5208511706891418
                ],
                "bias": -0.18913109322411312
            },
            {
                "weights": [
                    2.5402733345764203,
                    2.768616434589227,
                    -3.749307384697621,
                    -5.179648371119562
                ],
                "bias": 2.2940133289486457
            },
            {
                "weights": [
                    3.4075835666295715,
                    5.323755506069874,
                    -6.026851920021459,
                    -7.532772860291816
                ],
                "bias": 4.089592178903328
            },
            {
                "weights": [
                    0.4879755188142578,
                    0.49157815047978876,
                    -0.42943413748216686,
                    0.21622375505617702
                ],
                "bias": 0.03502092248644879
            },
            {
                "weights": [
                    -0.4177475100863968,
                    -0.3701904418402033,
                    0.23325987756529232,
                    0.12514765603461595
                ],
                "bias": -0.29597577955365584
            }
        ],
        "output_weights": [
            {
                "weights": [
                    -7.165438393776559,
                    -0.6655828284626759,
                    1.2405012921429308,
                    3.5773164090670004,
                    0.11728712595857922,
                    0.16465585453131307
                ],
                "bias": -0.6494343572125104
            },
            {
                "weights": [
                    7.253609781956996,
                    -3.8919784495032754,
                    2.786646749587466,
                    4.691477339138688,
                    -4.073326966749526,
                    0.6015153291474913
                ],
                "bias": -3.313696011520528
            },
            {
                "weights": [
                    1.812114825417372,
                    0.6793189026891602,
                    -3.3011768477381365,
                    -6.019555327683663,
                    0.46312605731493706,
                    0.29802578059747625
                ],
                "bias": 0.9721371182264861
            }
        ]
    },
    {
        "input": [
            5.0,
            3.4,
            1.5,
            0.2
        ],
        "expected": [
            1,
            0,
            0
        ],
        "output": [
            0.9739410851575447,
            0.029211739774667723,
            0.0007272168166546701
        ],
        "error": [
            -0.02605891484245526,
            0.029211739774667723,
            0.0007272168166546701
        ],
        "mse": 0.0005109738759092215,
        "hidden_outputs": [
            0.00349554940786932,
            0.9651399119726379,
            0.9999999804205472,
            0.9999999999996503,
            0.9719511461803578,
            0.03666984334860713
        ],
        "output_outputs": [
            0.9739410851575447,
            0.029211739774667723,
            0.0007272168166546701
        ],
        "hidden_weights": [
            {
                "weights": [
                    -0.41793678663258793,
                    -2.4273936529483087,
                    3.540145651180965,
                    1.0368765612134132
                ],
                "bias": -0.8275344801164358
            },
            {
                "weights": [
                    -0.3234080575957844,
                    1.5400609366832554,
                    -0.1421836837234019,
                    0.5208511706891418
                ],
                "bias": -0.18913109322411312
            },
            {
                "weights": [
                    2.5402733345764203,
                    2.768616434589227,
                    -3.749307384697621,
                    -5.179648371119562
                ],
                "bias": 2.2940133289486457
            },
            {
                "weights": [
                    3.4075835666295715,
                    5.323755506069874,
                    -6.026851920021459,
                    -7.532772860291816
                ],
                "bias": 4.089592178903328
            },
            {
                "weights": [
                    0.4879755188142578,
                    0.49157815047978876,
                    -0.42943413748216686,
                    0.21622375505617702
                ],
                "bias": 0.03502092248644879
            },
            {
                "weights": [
                    -0.4177475100863968,
                    -0.3701904418402033,
                    0.23325987756529232,
                    0.12514765603461595
                ],
                "bias": -0.29597577955365584
            }
        ],
        "output_weights": [
            {
                "weights": [
                    -7.165438393776559,
                    -0.6655828284626759,
                    1.2405012921429308,
                    3.5773164090670004,
                    0.11728712595857922,
                    0.16465585453131307
                ],
                "bias": -0.6494343572125104
            },
            {
                "weights": [
                    7.253609781956996,
                    -3.8919784495032754,
                    2.786646749587466,
                    4.691477339138688,
                    -4.073326966749526,
                    0.6015153291474913
                ],
                "bias": -3.313696011520528
            },
            {
                "weights": [
                    1.812114825417372,
                    0.6793189026891602,
                    -3.3011768477381365,
                    -6.019555327683663,
                    0.46312605731493706,
                    0.29802578059747625
                ],
                "bias": 0.9721371182264861
            }
        ]
    },
    {
        "input": [
            4.4,
            2.9,
            1.4,
            0.2
        ],
        "expected": [
            1,
            0,
            0
        ],
        "output": [
            0.9730875755366867,
            0.03641562636694459,
            0.0007223582161026187
        ],
        "error": [
            -0.026912424463313322,
            0.03641562636694459,
            0.0007223582161026187
        ],
        "mse": 0.0006836327451942756,
        "hidden_outputs": [
            0.010536486931003307,
            0.9404287742858928,
            0.9999997533372691,
            0.9999999999788145,
            0.9547707302360379,
            0.054370776119014426
        ],
        "output_outputs": [
            0.9730875755366867,
            0.03641562636694459,
            0.0007223582161026187
        ],
        "hidden_weights": [
            {
                "weights": [
                    -0.41793678663258793,
                    -2.4273936529483087,
                    3.540145651180965,
                    1.0368765612134132
                ],
                "bias": -0.8275344801164358
            },
            {
                "weights": [
                    -0.3234080575957844,
                    1.5400609366832554,
                    -0.1421836837234019,
                    0.5208511706891418
                ],
                "bias": -0.18913109322411312
            },
            {
                "weights": [
                    2.5402733345764203,
                    2.768616434589227,
                    -3.749307384697621,
                    -5.179648371119562
                ],
                "bias": 2.2940133289486457
            },
            {
                "weights": [
                    3.4075835666295715,
                    5.323755506069874,
                    -6.026851920021459,
                    -7.532772860291816
                ],
                "bias": 4.089592178903328
            },
            {
                "weights": [
                    0.4879755188142578,
                    0.49157815047978876,
                    -0.42943413748216686,
                    0.21622375505617702
                ],
                "bias": 0.03502092248644879
            },
            {
                "weights": [
                    -0.4177475100863968,
                    -0.3701904418402033,
                    0.23325987756529232,
                    0.12514765603461595
                ],
                "bias": -0.29597577955365584
            }
        ],
        "output_weights": [
            {
                "weights": [
                    -7.165438393776559,
                    -0.6655828284626759,
                    1.2405012921429308,
                    3.5773164090670004,
                    0.11728712595857922,
                    0.16465585453131307
                ],
                "bias": -0.6494343572125104
            },
            {
                "weights": [
                    7.253609781956996,
                    -3.8919784495032754,
                    2.786646749587466,
                    4.691477339138688,
                    -4.073326966749526,
                    0.6015153291474913
                ],
                "bias": -3.313696011520528
            },
            {
                "weights": [
                    1.812114825417372,
                    0.6793189026891602,
                    -3.3011768477381365,
                    -6.019555327683663,
                    0.46312605731493706,
                    0.29802578059747625
                ],
                "bias": 0.9721371182264861
            }
        ]
    },
    {
        "input": [
            6.7,
            2.5,
            5.8,
            1.8
        ],
        "expected": [
            0,
            0,
            1
        ],
        "output": [
            0.00026444774766715156,
            0.04856164292731447,
            0.9775138350205153
        ],
        "error": [
            0.00026444774766715156,
            0.04856164292731447,
            -0.022486164979484746
        ],
        "mse": 0.0009546435706319479,
        "hidden_outputs": [
            0.9999969581070215,
            0.8330019718177409,
            0.007892142830877937,
            0.00025222381754294826,
            0.9192267541058982,
            0.0800117697525905
        ],
        "output_outputs": [
            0.00026444774766715156,
            0.04856164292731447,
            0.9775138350205153
        ],
        "hidden_weights": [
            {
                "weights": [
                    -0.41793678663258793,
                    -2.4273936529483087,
                    3.540145651180965,
                    1.0368765612134132
                ],
                "bias": -0.8275344801164358
            },
            {
                "weights": [
                    -0.3234080575957844,
                    1.5400609366832554,
                    -0.1421836837234019,
                    0.5208511706891418
                ],
                "bias": -0.18913109322411312
            },
            {
                "weights": [
                    2.5402733345764203,
                    2.768616434589227,
                    -3.749307384697621,
                    -5.179648371119562
                ],
                "bias": 2.2940133289486457
            },
            {
                "weights": [
                    3.4075835666295715,
                    5.323755506069874,
                    -6.026851920021459,
                    -7.532772860291816
                ],
                "bias": 4.089592178903328
            },
            {
                "weights": [
                    0.4879755188142578,
                    0.49157815047978876,
                    -0.42943413748216686,
                    0.21622375505617702
                ],
                "bias": 0.03502092248644879
            },
            {
                "weights": [
                    -0.4177475100863968,
                    -0.3701904418402033,
                    0.23325987756529232,
                    0.12514765603461595
                ],
                "bias": -0.29597577955365584
            }
        ],
        "output_weights": [
            {
                "weights": [
                    -7.165438393776559,
                    -0.6655828284626759,
                    1.2405012921429308,
                    3.5773164090670004,
                    0.11728712595857922,
                    0.16465585453131307
                ],
                "bias": -0.6494343572125104
            },
            {
                "weights": [
                    7.253609781956996,
                    -3.8919784495032754,
                    2.786646749587466,
                    4.691477339138688,
                    -4.073326966749526,
                    0.6015153291474913
                ],
                "bias": -3.313696011520528
            },
            {
                "weights": [
                    1.812114825417372,
                    0.6793189026891602,
                    -3.3011768477381365,
                    -6.019555327683663,
                    0.46312605731493706,
                    0.29802578059747625
                ],
                "bias": 0.9721371182264861
            }
        ]
    },
    {
        "input": [
            4.6,
            3.6,
            1.0,
            0.2
        ],
        "expected": [
            1,
            0,
            0
        ],
        "output": [
            0.9742716083884478,
            0.026816675892262543,
            0.0007307523405754584
        ],
        "error": [
            -0.02572839161155216,
            0.026816675892262543,
            0.0007307523405754584
        ],
        "mse": 0.00046053941327043306,
        "hidden_outputs": [
            0.00043438715150812283,
            0.9787391490830399,
            0.9999999952306355,
            0.9999999999999769,
            0.9749911898053881,
            0.03584629516219955
        ],
        "output_outputs": [
            0.9742716083884478,
            0.026816675892262543,
            0.0007307523405754584
        ],
        "hidden_weights": [
            {
                "weights": [
                    -0.41793678663258793,
                    -2.4273936529483087,
                    3.540145651180965,
                    1.0368765612134132
                ],
                "bias": -0.8275344801164358
            },
            {
                "weights": [
                    -0.3234080575957844,
                    1.5400609366832554,
                    -0.1421836837234019,
                    0.5208511706891418
                ],
                "bias": -0.18913109322411312
            },
            {
                "weights": [
                    2.5402733345764203,
                    2.768616434589227,
                    -3.749307384697621,
                    -5.179648371119562
                ],
                "bias": 2.2940133289486457
            },
            {
                "weights": [
                    3.4075835666295715,
                    5.323755506069874,
                    -6.026851920021459,
                    -7.532772860291816
                ],
                "bias": 4.089592178903328
            },
            {
                "weights": [
                    0.4879755188142578,
                    0.49157815047978876,
                    -0.42943413748216686,
                    0.21622375505617702
                ],
                "bias": 0.03502092248644879
            },
            {
                "weights": [
                    -0.4177475100863968,
                    -0.3701904418402033,
                    0.23325987756529232,
                    0.12514765603461595
                ],
                "bias": -0.29597577955365584
            }
        ],
        "output_weights": [
            {
                "weights": [
                    -7.165438393776559,
                    -0.6655828284626759,
                    1.2405012921429308,
                    3.5773164090670004,
                    0.11728712595857922,
                    0.16465585453131307
                ],
                "bias": -0.6494343572125104
            },
            {
                "weights": [
                    7.253609781956996,
                    -3.8919784495032754,
                    2.786646749587466,
                    4.691477339138688,
                    -4.073326966749526,
                    0.6015153291474913
                ],
                "bias": -3.313696011520528
            },
            {
                "weights": [
                    1.812114825417372,
                    0.6793189026891602,
                    -3.3011768477381365,
                    -6.019555327683663,
                    0.46312605731493706,
                    0.29802578059747625
                ],
                "bias": 0.9721371182264861
            }
        ]
    },
    {
        "input": [
            6.9,
            3.1,
            5.4,
            2.1
        ],
        "expected": [
            0,
            0,
            1
        ],
        "output": [
            0.00027752273787129097,
            0.03484386504506487,
            0.9731720060310859
        ],
        "error": [
            0.00027752273787129097,
            0.03484386504506487,
            -0.02682799396891411
        ],
        "mse": 0.0006446377368482737,
        "hidden_outputs": [
            0.9999571605650933,
            0.9358083631024995,
            0.06186663077904829,
            0.013949519088168402,
            0.9552580431133925,
            0.05712938001247557
        ],
        "output_outputs": [
            0.00027752273787129097,
            0.03484386504506487,
            0.9731720060310859
        ],
        "hidden_weights": [
            {
                "weights": [
                    -0.41793678663258793,
                    -2.4273936529483087,
                    3.540145651180965,
                    1.0368765612134132
                ],
                "bias": -0.8275344801164358
            },
            {
                "weights": [
                    -0.3234080575957844,
                    1.5400609366832554,
                    -0.1421836837234019,
                    0.5208511706891418
                ],
                "bias": -0.18913109322411312
            },
            {
                "weights": [
                    2.5402733345764203,
                    2.768616434589227,
                    -3.749307384697621,
                    -5.179648371119562
                ],
                "bias": 2.2940133289486457
            },
            {
                "weights": [
                    3.4075835666295715,
                    5.323755506069874,
                    -6.026851920021459,
                    -7.532772860291816
                ],
                "bias": 4.089592178903328
            },
            {
                "weights": [
                    0.4879755188142578,
                    0.49157815047978876,
                    -0.42943413748216686,
                    0.21622375505617702
                ],
                "bias": 0.03502092248644879
            },
            {
                "weights": [
                    -0.4177475100863968,
                    -0.3701904418402033,
                    0.23325987756529232,
                    0.12514765603461595
                ],
                "bias": -0.29597577955365584
            }
        ],
        "output_weights": [
            {
                "weights": [
                    -7.165438393776559,
                    -0.6655828284626759,
                    1.2405012921429308,
                    3.5773164090670004,
                    0.11728712595857922,
                    0.16465585453131307
                ],
                "bias": -0.6494343572125104
            },
            {
                "weights": [
                    7.253609781956996,
                    -3.8919784495032754,
                    2.786646749587466,
                    4.691477339138688,
                    -4.073326966749526,
                    0.6015153291474913
                ],
                "bias": -3.313696011520528
            },
            {
                "weights": [
                    1.812114825417372,
                    0.6793189026891602,
                    -3.3011768477381365,
                    -6.019555327683663,
                    0.46312605731493706,
                    0.29802578059747625
                ],
                "bias": 0.9721371182264861
            }
        ]
    },
    {
        "input": [
            5.0,
            3.4,
            1.6,
            0.4
        ],
        "expected": [
            1,
            0,
            0
        ],
        "output": [
            0.9734185185887145,
            0.029459396280143373,
            0.0007324956277052884
        ],
        "error": [
            -0.026581481411285468,
            0.029459396280143373,
            0.0007324956277052884
        ],
        "mse": 0.0005249892443512158,
        "hidden_outputs": [
            0.006111983631645187,
            0.9680429108807512,
            0.9999999197344076,
            0.999999999997117,
            0.9719593601034454,
            0.03841680971931219
        ],
        "output_outputs": [
            0.9734185185887145,
            0.029459396280143373,
            0.0007324956277052884
        ],
        "hidden_weights": [
            {
                "weights": [
                    -0.41793678663258793,
                    -2.4273936529483087,
                    3.540145651180965,
                    1.0368765612134132
                ],
                "bias": -0.8275344801164358
            },
            {
                "weights": [
                    -0.3234080575957844,
                    1.5400609366832554,
                    -0.1421836837234019,
                    0.5208511706891418
                ],
                "bias": -0.18913109322411312
            },
            {
                "weights": [
                    2.5402733345764203,
                    2.768616434589227,
                    -3.749307384697621,
                    -5.179648371119562
                ],
                "bias": 2.2940133289486457
            },
            {
                "weights": [
                    3.4075835666295715,
                    5.323755506069874,
                    -6.026851920021459,
                    -7.532772860291816
                ],
                "bias": 4.089592178903328
            },
            {
                "weights": [
                    0.4879755188142578,
                    0.49157815047978876,
                    -0.42943413748216686,
                    0.21622375505617702
                ],
                "bias": 0.03502092248644879
            },
            {
                "weights": [
                    -0.4177475100863968,
                    -0.3701904418402033,
                    0.23325987756529232,
                    0.12514765603461595
                ],
                "bias": -0.29597577955365584
            }
        ],
        "output_weights": [
            {
                "weights": [
                    -7.165438393776559,
                    -0.6655828284626759,
                    1.2405012921429308,
                    3.5773164090670004,
                    0.11728712595857922,
                    0.16465585453131307
                ],
                "bias": -0.6494343572125104
            },
            {
                "weights": [
                    7.253609781956996,
                    -3.8919784495032754,
                    2.786646749587466,
                    4.691477339138688,
                    -4.073326966749526,
                    0.6015153291474913
                ],
                "bias": -3.313696011520528
            },
            {
                "weights": [
                    1.812114825417372,
                    0.6793189026891602,
                    -3.3011768477381365,
                    -6.019555327683663,
                    0.46312605731493706,
                    0.29802578059747625
                ],
                "bias": 0.9721371182264861
            }
        ]
    },
    {
        "input": [
            5.0,
            3.2,
            1.2,
            0.2
        ],
        "expected": [
            1,
            0,
            0
        ],
        "output": [
            0.974389236286749,
            0.029930111085270692,
            0.0007205471825244895
        ],
        "error": [
            -0.025610763713250995,
            0.029930111085270692,
            0.0007205471825244895
        ],
        "mse": 0.0005174139852649538,
        "hidden_outputs": [
            0.001966899477374994,
            0.9550225384085951,
            0.9999999889391508,
            0.9999999999998337,
            0.9727711659713162,
            0.036813538059426505
        ],
        "output_outputs": [
            0.974389236286749,
            0.029930111085270692,
            0.0007205471825244895
        ],
        "hidden_weights": [
            {
                "weights": [
                    -0.41793678663258793,
                    -2.4273936529483087,
                    3.540145651180965,
                    1.0368765612134132
                ],
                "bias": -0.8275344801164358
            },
            {
                "weights": [
                    -0.3234080575957844,
                    1.5400609366832554,
                    -0.1421836837234019,
                    0.5208511706891418
                ],
                "bias": -0.18913109322411312
            },
            {
                "weights": [
                    2.5402733345764203,
                    2.768616434589227,
                    -3.749307384697621,
                    -5.179648371119562
                ],
                "bias": 2.2940133289486457
            },
            {
                "weights": [
                    3.4075835666295715,
                    5.323755506069874,
                    -6.026851920021459,
                    -7.532772860291816
                ],
                "bias": 4.089592178903328
            },
            {
                "weights": [
                    0.4879755188142578,
                    0.49157815047978876,
                    -0.42943413748216686,
                    0.21622375505617702
                ],
                "bias": 0.03502092248644879
            },
            {
                "weights": [
                    -0.4177475100863968,
                    -0.3701904418402033,
                    0.23325987756529232,
                    0.12514765603461595
                ],
                "bias": -0.29597577955365584
            }
        ],
        "output_weights": [
            {
                "weights": [
                    -7.165438393776559,
                    -0.6655828284626759,
                    1.2405012921429308,
                    3.5773164090670004,
                    0.11728712595857922,
                    0.16465585453131307
                ],
                "bias": -0.6494343572125104
            },
            {
                "weights": [
                    7.253609781956996,
                    -3.8919784495032754,
                    2.786646749587466,
                    4.691477339138688,
                    -4.073326966749526,
                    0.6015153291474913
                ],
                "bias": -3.313696011520528
            },
            {
                "weights": [
                    1.812114825417372,
                    0.6793189026891602,
                    -3.3011768477381365,
                    -6.019555327683663,
                    0.46312605731493706,
                    0.29802578059747625
                ],
                "bias": 0.9721371182264861
            }
        ]
    },
    {
        "input": [
            4.9,
            2.4,
            3.3,
            1.0
        ],
        "expected": [
            0,
            1,
            0
        ],
        "output": [
            0.03335217364858987,
            0.9840224269541865,
            0.004328604688501924
        ],
        "error": [
            0.03335217364858987,
            -0.015977573045813487,
            0.004328604688501924
        ],
        "mse": 0.000462129048689773,
        "hidden_outputs": [
            0.9823322337017764,
            0.878035894104855,
            0.9788278546668842,
            0.997854812173494,
            0.9172062376573046,
            0.08814559583110072
        ],
        "output_outputs": [
            0.03335217364858987,
            0.9840224269541865,
            0.004328604688501924
        ],
        "hidden_weights": [
            {
                "weights": [
                    -0.41793678663258793,
                    -2.4273936529483087,
                    3.540145651180965,
                    1.0368765612134132
                ],
                "bias": -0.8275344801164358
            },
            {
                "weights": [
                    -0.3234080575957844,
                    1.5400609366832554,
                    -0.1421836837234019,
                    0.5208511706891418
                ],
                "bias": -0.18913109322411312
            },
            {
                "weights": [
                    2.5402733345764203,
                    2.768616434589227,
                    -3.749307384697621,
                    -5.179648371119562
                ],
                "bias": 2.2940133289486457
            },
            {
                "weights": [
                    3.4075835666295715,
                    5.323755506069874,
                    -6.026851920021459,
                    -7.532772860291816
                ],
                "bias": 4.089592178903328
            },
            {
                "weights": [
                    0.4879755188142578,
                    0.49157815047978876,
                    -0.42943413748216686,
                    0.21622375505617702
                ],
                "bias": 0.03502092248644879
            },
            {
                "weights": [
                    -0.4177475100863968,
                    -0.3701904418402033,
                    0.23325987756529232,
                    0.12514765603461595
                ],
                "bias": -0.29597577955365584
            }
        ],
        "output_weights": [
            {
                "weights": [
                    -7.165438393776559,
                    -0.6655828284626759,
                    1.2405012921429308,
                    3.5773164090670004,
                    0.11728712595857922,
                    0.16465585453131307
                ],
                "bias": -0.6494343572125104
            },
            {
                "weights": [
                    7.253609781956996,
                    -3.8919784495032754,
                    2.786646749587466,
                    4.691477339138688,
                    -4.073326966749526,
                    0.6015153291474913
                ],
                "bias": -3.313696011520528
            },
            {
                "weights": [
                    1.812114825417372,
                    0.6793189026891602,
                    -3.3011768477381365,
                    -6.019555327683663,
                    0.46312605731493706,
                    0.29802578059747625
                ],
                "bias": 0.9721371182264861
            }
        ]
    },
    {
        "input": [
            6.0,
            2.2,
            4.0,
            1.0
        ],
        "expected": [
            0,
            1,
            0
        ],
        "output": [
            0.030701195139301647,
            0.9894777706647515,
            0.0044787188804436525
        ],
        "error": [
            0.030701195139301647,
            -0.01052222933524849,
            0.0044787188804436525
        ],
        "mse": 0.0003577798719916951,
        "hidden_outputs": [
            0.9985314907642303,
            0.7704176634371591,
            0.9692231348539941,
            0.9901186451993886,
            0.927090562863903,
            0.07184467179852104
        ],
        "output_outputs": [
            0.030701195139301647,
            0.9894777706647515,
            0.0044787188804436525
        ],
        "hidden_weights": [
            {
                "weights": [
                    -0.41793678663258793,
                    -2.4273936529483087,
                    3.540145651180965,
                    1.0368765612134132
                ],
                "bias": -0.8275344801164358
            },
            {
                "weights": [
                    -0.3234080575957844,
                    1.5400609366832554,
                    -0.1421836837234019,
                    0.5208511706891418
                ],
                "bias": -0.18913109322411312
            },
            {
                "weights": [
                    2.5402733345764203,
                    2.768616434589227,
                    -3.749307384697621,
                    -5.179648371119562
                ],
                "bias": 2.2940133289486457
            },
            {
                "weights": [
                    3.4075835666295715,
                    5.323755506069874,
                    -6.026851920021459,
                    -7.532772860291816
                ],
                "bias": 4.089592178903328
            },
            {
                "weights": [
                    0.4879755188142578,
                    0.49157815047978876,
                    -0.42943413748216686,
                    0.21622375505617702
                ],
                "bias": 0.03502092248644879
            },
            {
                "weights": [
                    -0.4177475100863968,
                    -0.3701904418402033,
                    0.23325987756529232,
                    0.12514765603461595
                ],
                "bias": -0.29597577955365584
            }
        ],
        "output_weights": [
            {
                "weights": [
                    -7.165438393776559,
                    -0.6655828284626759,
                    1.2405012921429308,
                    3.5773164090670004,
                    0.11728712595857922,
                    0.16465585453131307
                ],
                "bias": -0.6494343572125104
            },
            {
                "weights": [
                    7.253609781956996,
                    -3.8919784495032754,
                    2.786646749587466,
                    4.691477339138688,
                    -4.073326966749526,
                    0.6015153291474913
                ],
                "bias": -3.313696011520528
            },
            {
                "weights": [
                    1.812114825417372,
                    0.6793189026891602,
                    -3.3011768477381365,
                    -6.019555327683663,
                    0.46312605731493706,
                    0.29802578059747625
                ],
                "bias": 0.9721371182264861
            }
        ]
    },
    {
        "input": [
