[
    {
        "input": [
            6.7,
            3.3,
            5.7,
            2.5
        ],
        "expected": [
            0,
            0,
            1
        ],
        "output": [
            4.9717200702906794e-05,
            0.03341390557553156,
            0.9673416670285657
        ],
        "error": [
            4.9717200702906794e-05,
            0.03341390557553156,
            -0.03265833297143428
        ],
        "mse": 0.0007276860900278853,
        "layers": [
            {
                "layer_index": 0,
                "outputs": [
                    8.958172271044099e-06,
                    0.9999999644538838,
                    0.0001955511071370291,
                    0.9957451286729665,
                    0.9999761045667593,
                    1.1766353342390434e-06
                ],
                "neurons": [
                    {
                        "weights": [
                            6.0655555380637916,
                            4.005667959138907,
                            -7.773598318411387,
                            -10.693106758991943
                        ],
                        "bias": 5.561415561058935
                    },
                    {
                        "weights": [
                            -9.37449920149064,
                            -6.169911137344645,
                            11.95866481730712,
                            16.634851077392426
                        ],
                        "bias": -9.429230844543245
                    },
                    {
                        "weights": [
                            4.028232121434521,
                            2.9485511870668906,
                            -5.428425358743208,
                            -7.687802115095928
                        ],
                        "bias": 4.902662476752064
                    },
                    {
                        "weights": [
                            -0.7927607404519915,
                            -2.8500764207897387,
                            2.3500673762166358,
                            3.4534351626334514
                        ],
                        "bias": -1.8567959926056488
                    },
                    {
                        "weights": [
                            -5.697535707568222,
                            -3.724833743917741,
                            7.1438857524904025,
                            10.496906834032382
                        ],
                        "bias": -5.8551759792806894
                    },
                    {
                        "weights": [
                            0.5935096417949839,
                            2.322206470162191,
                            -3.842248410814368,
                            -1.5658855030879404
                        ],
                        "bias": 0.5228833202689811
                    }
                ]
            },
            {
                "layer_index": 1,
                "outputs": [
                    4.9717200702906794e-05,
                    0.03341390557553156,
                    0.9673416670285657
                ],
                "neurons": [
                    {
                        "weights": [
                            -0.08942065911684033,
                            -1.8700035337864755,
                            -0.624787108085256,
                            -4.109385470275586,
                            -1.6370378662756535,
                            7.381155225093793
                        ],
                        "bias": -2.3100928020423996
                    },
                    {
                        "weights": [
                            1.5982847575869825,
                            -2.427398681654766,
                            1.194490193921329,
                            -0.5131461524741957,
                            -1.7331010331766497,
                            -8.767561226799915
                        ],
                        "bias": 1.306385186301474
                    },
                    {
                        "weights": [
                            -1.655629430071306,
                            2.463106049743376,
                            -1.2496565499411272,
                            2.0607167046484665,
                            1.2616235257421498,
                            -1.6189993074332032
                        ],
                        "bias": -2.3879351374870623
                    }
                ]
            }
        ]
    },
    {
        "input": [
            5.0,
            3.5,
            1.6,
            0.6
        ],
        "expected": [
            1,
            0,
            0
        ],
        "output": [
            0.986319594674187,
            0.010201082659358924,
            0.0010119403760999693
        ],
        "error": [
            -0.01368040532581305,
            0.010201082659358924,
            0.0010119403760999693
        ],
        "mse": 9.741320020879625e-05,
        "layers": [
            {
                "layer_index": 0,
                "outputs": [
                    0.9999999999999674,
                    6.522322781284608e-22,
                    0.9999999997387623,
                    4.707608923963342e-05,
                    1.3260371294864452e-13,
                    0.9893451219979025
                ],
                "neurons": [
                    {
                        "weights": [
                            6.0655555380637916,
                            4.005667959138907,
                            -7.773598318411387,
                            -10.693106758991943
                        ],
                        "bias": 5.561415561058935
                    },
                    {
                        "weights": [
                            -9.37449920149064,
                            -6.169911137344645,
                            11.95866481730712,
                            16.634851077392426
                        ],
                        "bias": -9.429230844543245
                    },
                    {
                        "weights": [
                            4.028232121434521,
                            2.9485511870668906,
                            -5.428425358743208,
                            -7.687802115095928
                        ],
                        "bias": 4.902662476752064
                    },
                    {
                        "weights": [
                            -0.7927607404519915,
                            -2.8500764207897387,
                            2.3500673762166358,
                            3.4534351626334514
                        ],
                        "bias": -1.8567959926056488
                    },
                    {
                        "weights": [
                            -5.697535707568222,
                            -3.724833743917741,
                            7.1438857524904025,
                            10.496906834032382
                        ],
                        "bias": -5.8551759792806894
                    },
                    {
                        "weights": [
                            0.5935096417949839,
                            2.322206470162191,
                            -3.842248410814368,
                            -1.5658855030879404
                        ],
                        "bias": 0.5228833202689811
                    }
                ]
            },
            {
                "layer_index": 1,
                "outputs": [
                    0.986319594674187,
                    0.010201082659358924,
                    0.0010119403760999693
                ],
                "neurons": [
                    {
                        "weights": [
                            -0.08942065911684033,
                            -1.8700035337864755,
                            -0.624787108085256,
                            -4.109385470275586,
                            -1.6370378662756535,
                            7.381155225093793
                        ],
                        "bias": -2.3100928020423996
                    },
                    {
                        "weights": [
                            1.5982847575869825,
                            -2.427398681654766,
                            1.194490193921329,
                            -0.5131461524741957,
                            -1.7331010331766497,
                            -8.767561226799915
                        ],
                        "bias": 1.306385186301474
                    },
                    {
                        "weights": [
                            -1.655629430071306,
                            2.463106049743376,
                            -1.2496565499411272,
                            2.0607167046484665,
                            1.2616235257421498,
                            -1.6189993074332032
                        ],
                        "bias": -2.3879351374870623
                    }
                ]
            }
        ]
    },
    {
        "input": [
            6.5,
            2.8,
            4.6,
            1.5
        ],
        "expected": [
            0,
            1,
            0
        ],
        "output": [
            0.0024529780170785467,
            0.9739468065377791,
            0.0244751130713357
        ],
        "error": [
            0.0024529780170785467,
            -0.026053193462220903,
            0.0244751130713357
        ],
        "mse": 0.00042793905019561607,
        "layers": [
            {
                "layer_index": 0,
                "outputs": [
                    0.9879335246882233,
                    0.00046310568154638303,
                    0.9447814543640228,
                    0.7311584243011762,
                    0.008911530096750402,
                    0.00010724398499157733
                ],
                "neurons": [
                    {
                        "weights": [
                            6.0655555380637916,
                            4.005667959138907,
                            -7.773598318411387,
                            -10.693106758991943
                        ],
                        "bias": 5.561415561058935
                    },
                    {
                        "weights": [
                            -9.37449920149064,
                            -6.169911137344645,
                            11.95866481730712,
                            16.634851077392426
                        ],
                        "bias": -9.429230844543245
                    },
                    {
                        "weights": [
                            4.028232121434521,
                            2.9485511870668906,
                            -5.428425358743208,
                            -7.687802115095928
                        ],
                        "bias": 4.902662476752064
                    },
                    {
                        "weights": [
                            -0.7927607404519915,
                            -2.8500764207897387,
                            2.3500673762166358,
                            3.4534351626334514
                        ],
                        "bias": -1.8567959926056488
                    },
                    {
                        "weights": [
                            -5.697535707568222,
                            -3.724833743917741,
                            7.1438857524904025,
                            10.496906834032382
                        ],
                        "bias": -5.8551759792806894
                    },
                    {
                        "weights": [
                            0.5935096417949839,
                            2.322206470162191,
                            -3.842248410814368,
                            -1.5658855030879404
                        ],
                        "bias": 0.5228833202689811
                    }
                ]
            },
            {
                "layer_index": 1,
                "outputs": [
                    0.0024529780170785467,
                    0.9739468065377791,
                    0.0244751130713357
                ],
                "neurons": [
                    {
                        "weights": [
                            -0.08942065911684033,
                            -1.8700035337864755,
                            -0.624787108085256,
                            -4.109385470275586,
                            -1.6370378662756535,
                            7.381155225093793
                        ],
                        "bias": -2.3100928020423996
                    },
                    {
                        "weights": [
                            1.5982847575869825,
                            -2.427398681654766,
                            1.194490193921329,
                            -0.5131461524741957,
                            -1.7331010331766497,
                            -8.767561226799915
                        ],
                        "bias": 1.306385186301474
                    },
                    {
                        "weights": [
                            -1.655629430071306,
                            2.463106049743376,
                            -1.2496565499411272,
                            2.0607167046484665,
                            1.2616235257421498,
                            -1.6189993074332032
                        ],
                        "bias": -2.3879351374870623
                    }
                ]
            }
        ]
    },
    {
        "input": [
            5.5,
            2.5,
            4.0,
            1.3
        ],
        "expected": [
            0,
            1,
            0
        ],
        "output": [
            0.0036523698343591095,
            0.9744286374351588,
            0.02063249868890994
        ],
        "error": [
            0.0036523698343591095,
            -0.02557136256484116,
            0.02063249868890994
        ],
        "mse": 0.0003643114636591222,
        "layers": [
            {
                "layer_index": 0,
                "outputs": [
                    0.9809360632046752,
                    0.0009540989405289164,
                    0.938281884575469,
                    0.6335702589750409,
                    0.013624266630873346,
                    0.0004047070602074029
                ],
                "neurons": [
                    {
                        "weights": [
                            6.0655555380637916,
                            4.005667959138907,
                            -7.773598318411387,
                            -10.693106758991943
                        ],
                        "bias": 5.561415561058935
                    },
                    {
                        "weights": [
                            -9.37449920149064,
                            -6.169911137344645,
                            11.95866481730712,
                            16.634851077392426
                        ],
                        "bias": -9.429230844543245
                    },
                    {
                        "weights": [
                            4.028232121434521,
                            2.9485511870668906,
                            -5.428425358743208,
                            -7.687802115095928
                        ],
                        "bias": 4.902662476752064
                    },
                    {
                        "weights": [
                            -0.7927607404519915,
                            -2.8500764207897387,
                            2.3500673762166358,
                            3.4534351626334514
                        ],
                        "bias": -1.8567959926056488
                    },
                    {
                        "weights": [
                            -5.697535707568222,
                            -3.724833743917741,
                            7.1438857524904025,
                            10.496906834032382
                        ],
                        "bias": -5.8551759792806894
                    },
                    {
                        "weights": [
                            0.5935096417949839,
                            2.322206470162191,
                            -3.842248410814368,
                            -1.5658855030879404
                        ],
                        "bias": 0.5228833202689811
                    }
                ]
            },
            {
                "layer_index": 1,
                "outputs": [
                    0.0036523698343591095,
                    0.9744286374351588,
                    0.02063249868890994
                ],
                "neurons": [
                    {
                        "weights": [
                            -0.08942065911684033,
                            -1.8700035337864755,
                            -0.624787108085256,
                            -4.109385470275586,
                            -1.6370378662756535,
                            7.381155225093793
                        ],
                        "bias": -2.3100928020423996
                    },
                    {
                        "weights": [
                            1.5982847575869825,
                            -2.427398681654766,
                            1.194490193921329,
                            -0.5131461524741957,
                            -1.7331010331766497,
                            -8.767561226799915
                        ],
                        "bias": 1.306385186301474
                    },
                    {
                        "weights": [
                            -1.655629430071306,
                            2.463106049743376,
                            -1.2496565499411272,
                            2.0607167046484665,
                            1.2616235257421498,
                            -1.6189993074332032
                        ],
                        "bias": -2.3879351374870623
                    }
                ]
            }
        ]
    },
    {
        "input": [
            5.4,
            3.4,
            1.7,
            0.2
        ],
        "expected": [
            1,
            0,
            0
        ],
        "output": [
            0.9865500352546159,
            0.009998329731640016,
            0.0010080908406161033
        ],
        "error": [
            -0.013449964745384069,
            0.009998329731640016,
            0.0010080908406161033
        ],
        "mse": 9.396146540586839e-05,
        "layers": [
            {
                "layer_index": 0,
                "outputs": [
                    0.9999999999999998,
                    1.2117957255751052e-25,
                    0.9999999999944338,
                    1.4488189786101847e-05,
                    6.043873440357891e-16,
                    0.9916601728114931
                ],
                "neurons": [
                    {
                        "weights": [
                            6.0655555380637916,
                            4.005667959138907,
                            -7.773598318411387,
                            -10.693106758991943
                        ],
                        "bias": 5.561415561058935
                    },
                    {
                        "weights": [
                            -9.37449920149064,
                            -6.169911137344645,
                            11.95866481730712,
                            16.634851077392426
                        ],
                        "bias": -9.429230844543245
                    },
                    {
                        "weights": [
                            4.028232121434521,
                            2.9485511870668906,
                            -5.428425358743208,
                            -7.687802115095928
                        ],
                        "bias": 4.902662476752064
                    },
                    {
                        "weights": [
                            -0.7927607404519915,
                            -2.8500764207897387,
                            2.3500673762166358,
                            3.4534351626334514
                        ],
                        "bias": -1.8567959926056488
                    },
                    {
                        "weights": [
                            -5.697535707568222,
                            -3.724833743917741,
                            7.1438857524904025,
                            10.496906834032382
                        ],
                        "bias": -5.8551759792806894
                    },
                    {
                        "weights": [
                            0.5935096417949839,
                            2.322206470162191,
                            -3.842248410814368,
                            -1.5658855030879404
                        ],
                        "bias": 0.5228833202689811
                    }
                ]
            },
            {
                "layer_index": 1,
                "outputs": [
                    0.9865500352546159,
                    0.009998329731640016,
                    0.0010080908406161033
                ],
                "neurons": [
                    {
                        "weights": [
                            -0.08942065911684033,
                            -1.8700035337864755,
                            -0.624787108085256,
                            -4.109385470275586,
                            -1.6370378662756535,
                            7.381155225093793
                        ],
                        "bias": -2.3100928020423996
                    },
                    {
                        "weights": [
                            1.5982847575869825,
                            -2.427398681654766,
                            1.194490193921329,
                            -0.5131461524741957,
                            -1.7331010331766497,
                            -8.767561226799915
                        ],
                        "bias": 1.306385186301474
                    },
                    {
                        "weights": [
                            -1.655629430071306,
                            2.463106049743376,
                            -1.2496565499411272,
                            2.0607167046484665,
                            1.2616235257421498,
                            -1.6189993074332032
                        ],
                        "bias": -2.3879351374870623
                    }
                ]
            }
        ]
    },
    {
        "input": [
            6.3,
            2.9,
            5.6,
            1.8
        ],
        "expected": [
            0,
            0,
            1
        ],
        "output": [
            5.1739891205938203e-05,
            0.033871853600493544,
            0.9664287803905448
        ],
        "error": [
            5.1739891205938203e-05,
            0.033871853600493544,
            -0.033571219609455194
        ],
        "mse": 0.0007581106431386262,
        "layers": [
            {
                "layer_index": 0,
                "outputs": [
                    0.0006176997206520862,
                    0.999973276401072,
                    0.0044699302161608605,
                    0.9860764237192126,
                    0.9982537270766945,
                    1.6107771559891042e-06
                ],
                "neurons": [
                    {
                        "weights": [
                            6.0655555380637916,
                            4.005667959138907,
                            -7.773598318411387,
                            -10.693106758991943
                        ],
                        "bias": 5.561415561058935
                    },
                    {
                        "weights": [
                            -9.37449920149064,
                            -6.169911137344645,
                            11.95866481730712,
                            16.634851077392426
                        ],
                        "bias": -9.429230844543245
                    },
                    {
                        "weights": [
                            4.028232121434521,
                            2.9485511870668906,
                            -5.428425358743208,
                            -7.687802115095928
                        ],
                        "bias": 4.902662476752064
                    },
                    {
                        "weights": [
                            -0.7927607404519915,
                            -2.8500764207897387,
                            2.3500673762166358,
                            3.4534351626334514
                        ],
                        "bias": -1.8567959926056488
                    },
                    {
                        "weights": [
                            -5.697535707568222,
                            -3.724833743917741,
                            7.1438857524904025,
                            10.496906834032382
                        ],
                        "bias": -5.8551759792806894
                    },
                    {
                        "weights": [
                            0.5935096417949839,
                            2.322206470162191,
                            -3.842248410814368,
                            -1.5658855030879404
                        ],
                        "bias": 0.5228833202689811
                    }
                ]
            },
            {
                "layer_index": 1,
                "outputs": [
                    5.1739891205938203e-05,
                    0.033871853600493544,
                    0.9664287803905448
                ],
                "neurons": [
                    {
                        "weights": [
                            -0.08942065911684033,
                            -1.8700035337864755,
                            -0.624787108085256,
                            -4.109385470275586,
                            -1.6370378662756535,
                            7.381155225093793
                        ],
                        "bias": -2.3100928020423996
                    },
                    {
                        "weights": [
                            1.5982847575869825,
                            -2.427398681654766,
                            1.194490193921329,
                            -0.5131461524741957,
                            -1.7331010331766497,
                            -8.767561226799915
                        ],
                        "bias": 1.306385186301474
                    },
                    {
                        "weights": [
                            -1.655629430071306,
                            2.463106049743376,
                            -1.2496565499411272,
                            2.0607167046484665,
                            1.2616235257421498,
                            -1.6189993074332032
                        ],
                        "bias": -2.3879351374870623
                    }
                ]
            }
        ]
    },
    {
        "input": [
            6.2,
            2.9,
            4.3,
            1.3
        ],
        "expected": [
            0,
            1,
            0
        ],
        "output": [
            0.009707383059572666,
            0.9798669320081669,
            0.011220853127922288
        ],
        "error": [
            0.009707383059572666,
            -0.02013306799183312,
            0.011220853127922288
        ],
        "mse": 0.00020849375251581902,
        "layers": [
            {
                "layer_index": 0,
                "outputs": [
                    0.9994228236846737,
                    4.133825903630717e-06,
                    0.9938926016880615,
                    0.39117430109528617,
                    0.0004916618441752026,
                    0.0004901653654987483
                ],
                "neurons": [
                    {
                        "weights": [
                            6.0655555380637916,
                            4.005667959138907,
                            -7.773598318411387,
                            -10.693106758991943
                        ],
                        "bias": 5.561415561058935
                    },
                    {
                        "weights": [
                            -9.37449920149064,
                            -6.169911137344645,
                            11.95866481730712,
                            16.634851077392426
                        ],
                        "bias": -9.429230844543245
                    },
                    {
                        "weights": [
                            4.028232121434521,
                            2.9485511870668906,
                            -5.428425358743208,
                            -7.687802115095928
                        ],
                        "bias": 4.902662476752064
                    },
                    {
                        "weights": [
                            -0.7927607404519915,
                            -2.8500764207897387,
                            2.3500673762166358,
                            3.4534351626334514
                        ],
                        "bias": -1.8567959926056488
                    },
                    {
                        "weights": [
                            -5.697535707568222,
                            -3.724833743917741,
                            7.1438857524904025,
                            10.496906834032382
                        ],
                        "bias": -5.8551759792806894
                    },
                    {
                        "weights": [
                            0.5935096417949839,
                            2.322206470162191,
                            -3.842248410814368,
                            -1.5658855030879404
                        ],
                        "bias": 0.5228833202689811
                    }
                ]
            },
            {
                "layer_index": 1,
                "outputs": [
                    0.009707383059572666,
                    0.9798669320081669,
                    0.011220853127922288
                ],
                "neurons": [
                    {
                        "weights": [
                            -0.08942065911684033,
                            -1.8700035337864755,
                            -0.624787108085256,
                            -4.109385470275586,
                            -1.6370378662756535,
                            7.381155225093793
                        ],
                        "bias": -2.3100928020423996
                    },
                    {
                        "weights": [
                            1.5982847575869825,
                            -2.427398681654766,
                            1.194490193921329,
                            -0.5131461524741957,
                            -1.7331010331766497,
                            -8.767561226799915
                        ],
                        "bias": 1.306385186301474
                    },
                    {
                        "weights": [
                            -1.655629430071306,
                            2.463106049743376,
                            -1.2496565499411272,
                            2.0607167046484665,
                            1.2616235257421498,
                            -1.6189993074332032
                        ],
                        "bias": -2.3879351374870623
                    }
                ]
            }
        ]
    },
    {
        "input": [
            4.9,
            3.0,
            1.4,
            0.2
        ],
        "expected": [
            1,
            0,
            0
        ],
        "output": [
            0.9864875978797785,
            0.01005267125918951,
            0.0010091503683594535
        ],
        "error": [
            -0.013512402120221534,
            0.01005267125918951,
            0.0010091503683594535
        ],
        "mse": 9.488653165662073e-05,
        "layers": [
            {
                "layer_index": 0,
                "outputs": [
                    0.9999999999999987,
                    4.293631368313589e-24,
                    0.9999999999733784,
                    3.327165262076903e-05,
                    5.4303068207164966e-15,
                    0.9910345855695156
                ],
                "neurons": [
                    {
                        "weights": [
                            6.0655555380637916,
                            4.005667959138907,
                            -7.773598318411387,
                            -10.693106758991943
                        ],
                        "bias": 5.561415561058935
                    },
                    {
                        "weights": [
                            -9.37449920149064,
                            -6.169911137344645,
                            11.95866481730712,
                            16.634851077392426
                        ],
                        "bias": -9.429230844543245
                    },
                    {
                        "weights": [
                            4.028232121434521,
                            2.9485511870668906,
                            -5.428425358743208,
                            -7.687802115095928
                        ],
                        "bias": 4.902662476752064
                    },
                    {
                        "weights": [
                            -0.7927607404519915,
                            -2.8500764207897387,
                            2.3500673762166358,
                            3.4534351626334514
                        ],
                        "bias": -1.8567959926056488
                    },
                    {
                        "weights": [
                            -5.697535707568222,
                            -3.724833743917741,
                            7.1438857524904025,
                            10.496906834032382
                        ],
                        "bias": -5.8551759792806894
                    },
                    {
                        "weights": [
                            0.5935096417949839,
                            2.322206470162191,
                            -3.842248410814368,
                            -1.5658855030879404
                        ],
                        "bias": 0.5228833202689811
                    }
                ]
            },
            {
                "layer_index": 1,
                "outputs": [
                    0.9864875978797785,
                    0.01005267125918951,
                    0.0010091503683594535
                ],
                "neurons": [
                    {
                        "weights": [
                            -0.08942065911684033,
                            -1.8700035337864755,
                            -0.624787108085256,
                            -4.109385470275586,
                            -1.6370378662756535,
                            7.381155225093793
                        ],
                        "bias": -2.3100928020423996
                    },
                    {
                        "weights": [
                            1.5982847575869825,
                            -2.427398681654766,
                            1.194490193921329,
                            -0.5131461524741957,
                            -1.7331010331766497,
                            -8.767561226799915
                        ],
                        "bias": 1.306385186301474
                    },
                    {
                        "weights": [
                            -1.655629430071306,
                            2.463106049743376,
                            -1.2496565499411272,
                            2.0607167046484665,
                            1.2616235257421498,
                            -1.6189993074332032
                        ],
                        "bias": -2.3879351374870623
                    }
                ]
            }
        ]
    },
    {
        "input": [
            6.1,
            2.8,
            4.0,
            1.3
        ],
        "expected": [
            0,
            1,
            0
        ],
        "output": [
            0.013342470670985452,
            0.9806336608323882,
            0.009515296583437412
        ],
        "error": [
            0.013342470670985452,
            -0.019366339167611768,
            0.009515296583437412
        ],
        "mse": 0.00021453916181061878,
        "layers": [
            {
                "layer_index": 0,
                "outputs": [
                    0.9998465132121179,
                    5.412080699361468e-07,
                    0.997583408186956,
                    0.3136488624672125,
                    0.00014799909571368942,
                    0.0011588419869888774
                ],
                "neurons": [
                    {
                        "weights": [
                            6.0655555380637916,
                            4.005667959138907,
                            -7.773598318411387,
                            -10.693106758991943
                        ],
                        "bias": 5.561415561058935
                    },
                    {
                        "weights": [
                            -9.37449920149064,
                            -6.169911137344645,
                            11.95866481730712,
                            16.634851077392426
                        ],
                        "bias": -9.429230844543245
                    },
                    {
                        "weights": [
                            4.028232121434521,
                            2.9485511870668906,
                            -5.428425358743208,
                            -7.687802115095928
                        ],
                        "bias": 4.902662476752064
                    },
                    {
                        "weights": [
                            -0.7927607404519915,
                            -2.8500764207897387,
                            2.3500673762166358,
                            3.4534351626334514
                        ],
                        "bias": -1.8567959926056488
                    },
                    {
                        "weights": [
                            -5.697535707568222,
                            -3.724833743917741,
                            7.1438857524904025,
                            10.496906834032382
                        ],
                        "bias": -5.8551759792806894
                    },
                    {
                        "weights": [
                            0.5935096417949839,
                            2.322206470162191,
                            -3.842248410814368,
                            -1.5658855030879404
                        ],
                        "bias": 0.5228833202689811
                    }
                ]
            },
            {
                "layer_index": 1,
                "outputs": [
                    0.013342470670985452,
                    0.9806336608323882,
                    0.009515296583437412
                ],
                "neurons": [
                    {
                        "weights": [
                            -0.08942065911684033,
                            -1.8700035337864755,
                            -0.624787108085256,
                            -4.109385470275586,
                            -1.6370378662756535,
                            7.381155225093793
                        ],
                        "bias": -2.3100928020423996
                    },
                    {
                        "weights": [
                            1.5982847575869825,
                            -2.427398681654766,
                            1.194490193921329,
                            -0.5131461524741957,
                            -1.7331010331766497,
                            -8.767561226799915
                        ],
                        "bias": 1.306385186301474
                    },
                    {
                        "weights": [
                            -1.655629430071306,
                            2.463106049743376,
                            -1.2496565499411272,
                            2.0607167046484665,
                            1.2616235257421498,
                            -1.6189993074332032
                        ],
                        "bias": -2.3879351374870623
                    }
                ]
            }
        ]
    },
    {
        "input": [
            5.8,
            2.8,
            5.1,
            2.4
        ],
        "expected": [
            0,
            0,
            1
        ],
        "output": [
            4.94450359856414e-05,
            0.03338472399864549,
            0.9674356146715927
        ],
        "error": [
            4.94450359856414e-05,
            0.03338472399864549,
            -0.03256438532840733
        ],
        "mse": 0.0007249938110314367,
        "layers": [
            {
                "layer_index": 0,
                "outputs": [
                    1.5907558635399852e-06,
                    0.9999999975709262,
                    6.68266149211747e-05,
                    0.997095443379375,
                    0.999995429924093,
                    2.5328199371813577e-06
                ],
                "neurons": [
                    {
                        "weights": [
                            6.0655555380637916,
                            4.005667959138907,
                            -7.773598318411387,
                            -10.693106758991943
                        ],
                        "bias": 5.561415561058935
                    },
                    {
                        "weights": [
                            -9.37449920149064,
                            -6.169911137344645,
                            11.95866481730712,
                            16.634851077392426
                        ],
                        "bias": -9.429230844543245
                    },
                    {
                        "weights": [
                            4.028232121434521,
                            2.9485511870668906,
                            -5.428425358743208,
                            -7.687802115095928
                        ],
                        "bias": 4.902662476752064
                    },
                    {
                        "weights": [
                            -0.7927607404519915,
                            -2.8500764207897387,
                            2.3500673762166358,
                            3.4534351626334514
                        ],
                        "bias": -1.8567959926056488
                    },
                    {
                        "weights": [
                            -5.697535707568222,
                            -3.724833743917741,
                            7.1438857524904025,
                            10.496906834032382
                        ],
                        "bias": -5.8551759792806894
                    },
                    {
                        "weights": [
                            0.5935096417949839,
                            2.322206470162191,
                            -3.842248410814368,
                            -1.5658855030879404
                        ],
                        "bias": 0.5228833202689811
                    }
                ]
            },
            {
                "layer_index": 1,
                "outputs": [
                    4.94450359856414e-05,
                    0.03338472399864549,
                    0.9674356146715927
                ],
                "neurons": [
                    {
                        "weights": [
                            -0.08942065911684033,
                            -1.8700035337864755,
                            -0.624787108085256,
                            -4.109385470275586,
                            -1.6370378662756535,
                            7.381155225093793
                        ],
                        "bias": -2.3100928020423996
                    },
                    {
                        "weights": [
                            1.5982847575869825,
                            -2.427398681654766,
                            1.194490193921329,
                            -0.5131461524741957,
                            -1.7331010331766497,
                            -8.767561226799915
                        ],
                        "bias": 1.306385186301474
                    },
                    {
                        "weights": [
                            -1.655629430071306,
                            2.463106049743376,
                            -1.2496565499411272,
                            2.0607167046484665,
                            1.2616235257421498,
                            -1.6189993074332032
                        ],
                        "bias": -2.3879351374870623
                    }
                ]
            }
        ]
    },
    {
        "input": [
            6.3,
            3.3,
            4.7,
            1.6
        ],
        "expected": [
            0,
            1,
            0
        ],
        "output": [
            0.0045975178001941555,
            0.9728373862082347,
            0.020153625204625367
        ],
        "error": [
            0.0045975178001941555,
            -0.027162613791765322,
            0.020153625204625367
        ],
        "mse": 0.0003883711222707376,
        "layers": [
            {
                "layer_index": 0,
                "outputs": [
                    0.9660470502882066,
                    0.0024050030632403355,
                    0.8999492836096045,
                    0.5779520765369922,
                    0.02483656014104401,
                    0.0001770840604383658
                ],
                "neurons": [
                    {
                        "weights": [
                            6.0655555380637916,
                            4.005667959138907,
                            -7.773598318411387,
                            -10.693106758991943
                        ],
                        "bias": 5.561415561058935
                    },
                    {
                        "weights": [
                            -9.37449920149064,
                            -6.169911137344645,
                            11.95866481730712,
                            16.634851077392426
                        ],
                        "bias": -9.429230844543245
                    },
                    {
                        "weights": [
                            4.028232121434521,
                            2.9485511870668906,
                            -5.428425358743208,
                            -7.687802115095928
                        ],
                        "bias": 4.902662476752064
                    },
                    {
                        "weights": [
                            -0.7927607404519915,
                            -2.8500764207897387,
                            2.3500673762166358,
                            3.4534351626334514
                        ],
                        "bias": -1.8567959926056488
                    },
                    {
                        "weights": [
                            -5.697535707568222,
                            -3.724833743917741,
                            7.1438857524904025,
                            10.496906834032382
                        ],
                        "bias": -5.8551759792806894
                    },
                    {
                        "weights": [
                            0.5935096417949839,
                            2.322206470162191,
                            -3.842248410814368,
                            -1.5658855030879404
                        ],
                        "bias": 0.5228833202689811
                    }
                ]
            },
            {
                "layer_index": 1,
                "outputs": [
                    0.0045975178001941555,
                    0.9728373862082347,
                    0.020153625204625367
                ],
                "neurons": [
                    {
                        "weights": [
                            -0.08942065911684033,
                            -1.8700035337864755,
                            -0.624787108085256,
                            -4.109385470275586,
                            -1.6370378662756535,
                            7.381155225093793
                        ],
                        "bias": -2.3100928020423996
                    },
                    {
                        "weights": [
                            1.5982847575869825,
                            -2.427398681654766,
                            1.194490193921329,
                            -0.5131461524741957,
                            -1.7331010331766497,
                            -8.767561226799915
                        ],
                        "bias": 1.306385186301474
                    },
                    {
                        "weights": [
                            -1.655629430071306,
                            2.463106049743376,
                            -1.2496565499411272,
                            2.0607167046484665,
                            1.2616235257421498,
                            -1.6189993074332032
                        ],
                        "bias": -2.3879351374870623
                    }
                ]
            }
        ]
    },
    {
        "input": [
            7.3,
            2.9,
            6.3,
            1.8
        ],
        "expected": [
            0,
            0,
            1
        ],
        "output": [
            5.018894654012204e-05,
            0.03391459559949303,
            0.9668071341744812
        ],
        "error": [
            5.018894654012204e-05,
            0.03391459559949303,
            -0.033192865825518836
        ],
        "mse": 0.0007506562184394676,
        "layers": [
            {
                "layer_index": 0,
                "outputs": [
                    0.0011522871872027462,
                    0.9999271112218799,
                    0.005610059148097671,
                    0.9940146477187329,
                    0.99650077373802,
                    1.9802815431025637e-07
                ],
                "neurons": [
                    {
                        "weights": [
                            6.0655555380637916,
                            4.005667959138907,
                            -7.773598318411387,
                            -10.693106758991943
                        ],
                        "bias": 5.561415561058935
                    },
                    {
                        "weights": [
                            -9.37449920149064,
                            -6.169911137344645,
                            11.95866481730712,
                            16.634851077392426
                        ],
                        "bias": -9.429230844543245
                    },
                    {
                        "weights": [
                            4.028232121434521,
                            2.9485511870668906,
                            -5.428425358743208,
                            -7.687802115095928
                        ],
                        "bias": 4.902662476752064
                    },
                    {
                        "weights": [
                            -0.7927607404519915,
                            -2.8500764207897387,
                            2.3500673762166358,
                            3.4534351626334514
                        ],
                        "bias": -1.8567959926056488
                    },
                    {
                        "weights": [
                            -5.697535707568222,
                            -3.724833743917741,
                            7.1438857524904025,
                            10.496906834032382
                        ],
                        "bias": -5.8551759792806894
                    },
                    {
                        "weights": [
                            0.5935096417949839,
                            2.322206470162191,
                            -3.842248410814368,
                            -1.5658855030879404
                        ],
                        "bias": 0.5228833202689811
                    }
                ]
            },
            {
                "layer_index": 1,
                "outputs": [
                    5.018894654012204e-05,
                    0.03391459559949303,
                    0.9668071341744812
                ],
                "neurons": [
                    {
                        "weights": [
                            -0.08942065911684033,
                            -1.8700035337864755,
                            -0.624787108085256,
                            -4.109385470275586,
                            -1.6370378662756535,
                            7.381155225093793
                        ],
                        "bias": -2.3100928020423996
                    },
                    {
                        "weights": [
                            1.5982847575869825,
                            -2.427398681654766,
                            1.194490193921329,
                            -0.5131461524741957,
                            -1.7331010331766497,
                            -8.767561226799915
                        ],
                        "bias": 1.306385186301474
                    },
                    {
                        "weights": [
                            -1.655629430071306,
                            2.463106049743376,
                            -1.2496565499411272,
                            2.0607167046484665,
                            1.2616235257421498,
                            -1.6189993074332032
                        ],
                        "bias": -2.3879351374870623
                    }
                ]
            }
        ]
    },
    {
        "input": [
            7.0,
            3.2,
            4.7,
            1.4
        ],
        "expected": [
            0,
            1,
            0
        ],
        "output": [
            0.011727164800765775,
            0.9804991339675526,
            0.01012569520051591
        ],
        "error": [
            0.011727164800765775,
            -0.019500866032447384,
            0.01012569520051591
        ],
        "mse": 0.0002067799578578436,
        "layers": [
            {
                "layer_index": 0,
                "outputs": [
                    0.9999114788244412,
                    2.2663501624150876e-07,
                    0.9980907409844207,
                    0.34383738341366404,
                    8.392850600864911e-05,
                    0.00029088381144046037
                ],
                "neurons": [
                    {
                        "weights": [
                            6.0655555380637916,
                            4.005667959138907,
                            -7.773598318411387,
                            -10.693106758991943
                        ],
                        "bias": 5.561415561058935
                    },
                    {
                        "weights": [
                            -9.37449920149064,
                            -6.169911137344645,
                            11.95866481730712,
                            16.634851077392426
                        ],
                        "bias": -9.429230844543245
                    },
                    {
                        "weights": [
                            4.028232121434521,
                            2.9485511870668906,
                            -5.428425358743208,
                            -7.687802115095928
                        ],
                        "bias": 4.902662476752064
                    },
                    {
                        "weights": [
                            -0.7927607404519915,
                            -2.8500764207897387,
                            2.3500673762166358,
                            3.4534351626334514
                        ],
                        "bias": -1.8567959926056488
                    },
                    {
                        "weights": [
                            -5.697535707568222,
                            -3.724833743917741,
                            7.1438857524904025,
                            10.496906834032382
                        ],
                        "bias": -5.8551759792806894
                    },
                    {
                        "weights": [
                            0.5935096417949839,
                            2.322206470162191,
                            -3.842248410814368,
                            -1.5658855030879404
                        ],
                        "bias": 0.5228833202689811
                    }
                ]
            },
            {
                "layer_index": 1,
                "outputs": [
                    0.011727164800765775,
                    0.9804991339675526,
                    0.01012569520051591
                ],
                "neurons": [
                    {
                        "weights": [
                            -0.08942065911684033,
                            -1.8700035337864755,
                            -0.624787108085256,
                            -4.109385470275586,
                            -1.6370378662756535,
                            7.381155225093793
                        ],
                        "bias": -2.3100928020423996
                    },
                    {
                        "weights": [
                            1.5982847575869825,
                            -2.427398681654766,
                            1.194490193921329,
                            -0.5131461524741957,
                            -1.7331010331766497,
                            -8.767561226799915
                        ],
                        "bias": 1.306385186301474
                    },
                    {
                        "weights": [
                            -1.655629430071306,
                            2.463106049743376,
                            -1.2496565499411272,
                            2.0607167046484665,
                            1.2616235257421498,
                            -1.6189993074332032
                        ],
                        "bias": -2.3879351374870623
                    }
                ]
            }
        ]
    },
    {
        "input": [
            6.2,
            3.4,
            5.4,
            2.3
        ],
        "expected": [
            0,
            0,
            1
        ],
        "output": [
            5.1994915860791744e-05,
            0.03362842709229165,
            0.9665884145979399
        ],
        "error": [
            5.1994915860791744e-05,
            0.03362842709229165,
            -0.03341158540206013
        ],
        "mse": 0.0007490692837506693,
        "layers": [
            {
                "layer_index": 0,
                "outputs": [
                    5.6317692045823076e-05,
                    0.999999388972788,
                    0.0008304880903116825,
                    0.9847992387275202,
                    0.999860252934314,
                    4.777764707134832e-06
                ],
                "neurons": [
                    {
                        "weights": [
                            6.0655555380637916,
                            4.005667959138907,
                            -7.773598318411387,
                            -10.693106758991943
                        ],
                        "bias": 5.561415561058935
                    },
                    {
                        "weights": [
                            -9.37449920149064,
                            -6.169911137344645,
                            11.95866481730712,
                            16.634851077392426
                        ],
                        "bias": -9.429230844543245
                    },
                    {
                        "weights": [
                            4.028232121434521,
                            2.9485511870668906,
                            -5.428425358743208,
                            -7.687802115095928
                        ],
                        "bias": 4.902662476752064
                    },
                    {
                        "weights": [
                            -0.7927607404519915,
                            -2.8500764207897387,
                            2.3500673762166358,
                            3.4534351626334514
                        ],
                        "bias": -1.8567959926056488
                    },
                    {
                        "weights": [
                            -5.697535707568222,
                            -3.724833743917741,
                            7.1438857524904025,
                            10.496906834032382
                        ],
                        "bias": -5.8551759792806894
                    },
                    {
                        "weights": [
                            0.5935096417949839,
                            2.322206470162191,
                            -3.842248410814368,
                            -1.5658855030879404
                        ],
                        "bias": 0.5228833202689811
                    }
                ]
            },
            {
                "layer_index": 1,
                "outputs": [
                    5.1994915860791744e-05,
                    0.03362842709229165,
                    0.9665884145979399
                ],
                "neurons": [
                    {
                        "weights": [
                            -0.08942065911684033,
                            -1.8700035337864755,
                            -0.624787108085256,
                            -4.109385470275586,
                            -1.6370378662756535,
                            7.381155225093793
                        ],
                        "bias": -2.3100928020423996
                    },
                    {
                        "weights": [
                            1.5982847575869825,
                            -2.427398681654766,
                            1.194490193921329,
                            -0.5131461524741957,
                            -1.7331010331766497,
                            -8.767561226799915
                        ],
                        "bias": 1.306385186301474
                    },
                    {
                        "weights": [
                            -1.655629430071306,
                            2.463106049743376,
                            -1.2496565499411272,
                            2.0607167046484665,
                            1.2616235257421498,
                            -1.6189993074332032
                        ],
                        "bias": -2.3879351374870623
                    }
                ]
            }
        ]
    },
    {
        "input": [
            7.2,
            3.0,
            5.8,
            1.6
        ],
        "expected": [
            0,
            0,
            1
        ],
        "output": [
            0.00020469400519563293,
            0.2890217310360498,
            0.7371056733067953
        ],
        "error": [
            0.00020469400519563293,
            0.2890217310360498,
            -0.26289432669320467
        ],
        "mse": 0.050882343306061305,
        "layers": [
            {
                "layer_index": 0,
                "outputs": [
                    0.2798064767097933,
                    0.6319657411034595,
                    0.26235518927019236,
                    0.9543916999721078,
                    0.544297054850842,
                    2.1986046812859837e-06
                ],
                "neurons": [
                    {
                        "weights": [
                            6.0655555380637916,
                            4.005667959138907,
                            -7.773598318411387,
                            -10.693106758991943
                        ],
                        "bias": 5.561415561058935
                    },
                    {
                        "weights": [
                            -9.37449920149064,
                            -6.169911137344645,
                            11.95866481730712,
                            16.634851077392426
                        ],
                        "bias": -9.429230844543245
                    },
                    {
                        "weights": [
                            4.028232121434521,
                            2.9485511870668906,
                            -5.428425358743208,
                            -7.687802115095928
                        ],
                        "bias": 4.902662476752064
                    },
                    {
                        "weights": [
                            -0.7927607404519915,
                            -2.8500764207897387,
                            2.3500673762166358,
                            3.4534351626334514
                        ],
                        "bias": -1.8567959926056488
                    },
                    {
                        "weights": [
                            -5.697535707568222,
                            -3.724833743917741,
                            7.1438857524904025,
                            10.496906834032382
                        ],
                        "bias": -5.8551759792806894
                    },
                    {
                        "weights": [
                            0.5935096417949839,
                            2.322206470162191,
                            -3.842248410814368,
                            -1.5658855030879404
                        ],
                        "bias": 0.5228833202689811
                    }
                ]
            },
            {
                "layer_index": 1,
                "outputs": [
                    0.00020469400519563293,
                    0.2890217310360498,
                    0.7371056733067953
                ],
                "neurons": [
                    {
                        "weights": [
                            -0.08942065911684033,
                            -1.8700035337864755,
                            -0.624787108085256,
                            -4.109385470275586,
                            -1.6370378662756535,
                            7.381155225093793
                        ],
                        "bias": -2.3100928020423996
                    },
                    {
                        "weights": [
                            1.5982847575869825,
                            -2.427398681654766,
                            1.194490193921329,
                            -0.5131461524741957,
                            -1.7331010331766497,
                            -8.767561226799915
                        ],
                        "bias": 1.306385186301474
                    },
                    {
                        "weights": [
                            -1.655629430071306,
                            2.463106049743376,
                            -1.2496565499411272,
                            2.0607167046484665,
                            1.2616235257421498,
                            -1.6189993074332032
                        ],
                        "bias": -2.3879351374870623
                    }
                ]
            }
        ]
    },
    {
        "input": [
            5.2,
            2.7,
            3.9,
            1.4
        ],
        "expected": [
            0,
            1,
            0
        ],
        "output": [
            0.004454447566947647,
            0.9685636991214913,
            0.023168223151734755
        ],
        "error": [
            0.004454447566947647,
            -0.03143630087850868,
            0.023168223151734755
        ],
        "mse": 0.0005149498933531299,
        "layers": [
            {
                "layer_index": 0,
                "outputs": [
                    0.9327816547999983,
                    0.007334514845853841,
                    0.867240355170627,
                    0.5807161182129371,
                    0.04821868182758471,
                    0.000676489049531442
                ],
                "neurons": [
                    {
                        "weights": [
                            6.0655555380637916,
                            4.005667959138907,
                            -7.773598318411387,
                            -10.693106758991943
                        ],
                        "bias": 5.561415561058935
                    },
                    {
                        "weights": [
                            -9.37449920149064,
                            -6.169911137344645,
                            11.95866481730712,
                            16.634851077392426
                        ],
                        "bias": -9.429230844543245
                    },
                    {
                        "weights": [
                            4.028232121434521,
                            2.9485511870668906,
                            -5.428425358743208,
                            -7.687802115095928
                        ],
                        "bias": 4.902662476752064
                    },
                    {
                        "weights": [
                            -0.7927607404519915,
                            -2.8500764207897387,
                            2.3500673762166358,
                            3.4534351626334514
                        ],
                        "bias": -1.8567959926056488
                    },
                    {
                        "weights": [
                            -5.697535707568222,
                            -3.724833743917741,
                            7.1438857524904025,
                            10.496906834032382
                        ],
                        "bias": -5.8551759792806894
                    },
                    {
                        "weights": [
                            0.5935096417949839,
                            2.322206470162191,
                            -3.842248410814368,
                            -1.5658855030879404
                        ],
                        "bias": 0.5228833202689811
                    }
                ]
            },
            {
                "layer_index": 1,
                "outputs": [
                    0.004454447566947647,
                    0.9685636991214913,
                    0.023168223151734755
                ],
                "neurons": [
                    {
                        "weights": [
                            -0.08942065911684033,
                            -1.8700035337864755,
                            -0.624787108085256,
                            -4.109385470275586,
                            -1.6370378662756535,
                            7.381155225093793
                        ],
                        "bias": -2.3100928020423996
                    },
                    {
                        "weights": [
                            1.5982847575869825,
                            -2.427398681654766,
                            1.194490193921329,
                            -0.5131461524741957,
                            -1.7331010331766497,
                            -8.767561226799915
                        ],
                        "bias": 1.306385186301474
                    },
                    {
                        "weights": [
                            -1.655629430071306,
                            2.463106049743376,
                            -1.2496565499411272,
                            2.0607167046484665,
                            1.2616235257421498,
                            -1.6189993074332032
                        ],
                        "bias": -2.3879351374870623
                    }
                ]
            }
        ]
    },
    {
        "input": [
            5.7,
            2.8,
            4.5,
            1.3
        ],
        "expected": [
            0,
            1,
            0
        ],
        "output": [
            0.0031081517550431348,
            0.965700200552435,
            0.02914940085612086
        ],
        "error": [
            0.0031081517550431348,
            -0.034299799447565005,
            0.02914940085612086
        ],
        "mse": 0.0006786081399154592,
        "layers": [
            {
                "layer_index": 0,
                "outputs": [
                    0.9219197613224462,
                    0.00901035691630102,
                    0.8452042788646595,
                    0.6701851791577272,
                    0.04892989465805372,
                    0.00013397777975598005
                ],
                "neurons": [
                    {
                        "weights": [
                            6.0655555380637916,
                            4.005667959138907,
                            -7.773598318411387,
                            -10.693106758991943
                        ],
                        "bias": 5.561415561058935
                    },
                    {
                        "weights": [
                            -9.37449920149064,
                            -6.169911137344645,
                            11.95866481730712,
                            16.634851077392426
                        ],
                        "bias": -9.429230844543245
                    },
                    {
                        "weights": [
                            4.028232121434521,
                            2.9485511870668906,
                            -5.428425358743208,
                            -7.687802115095928
                        ],
                        "bias": 4.902662476752064
                    },
                    {
                        "weights": [
                            -0.7927607404519915,
                            -2.8500764207897387,
                            2.3500673762166358,
                            3.4534351626334514
                        ],
                        "bias": -1.8567959926056488
                    },
                    {
                        "weights": [
                            -5.697535707568222,
                            -3.724833743917741,
                            7.1438857524904025,
                            10.496906834032382
                        ],
                        "bias": -5.8551759792806894
                    },
                    {
                        "weights": [
                            0.5935096417949839,
                            2.322206470162191,
                            -3.842248410814368,
                            -1.5658855030879404
                        ],
                        "bias": 0.5228833202689811
                    }
                ]
            },
            {
                "layer_index": 1,
                "outputs": [
                    0.0031081517550431348,
                    0.965700200552435,
                    0.02914940085612086
                ],
                "neurons": [
                    {
                        "weights": [
                            -0.08942065911684033,
                            -1.8700035337864755,
                            -0.624787108085256,
                            -4.109385470275586,
                            -1.6370378662756535,
                            7.381155225093793
                        ],
                        "bias": -2.3100928020423996
                    },
                    {
                        "weights": [
                            1.5982847575869825,
                            -2.427398681654766,
                            1.194490193921329,
                            -0.5131461524741957,
                            -1.7331010331766497,
                            -8.767561226799915
                        ],
                        "bias": 1.306385186301474
                    },
                    {
                        "weights": [
                            -1.655629430071306,
                            2.463106049743376,
                            -1.2496565499411272,
                            2.0607167046484665,
                            1.2616235257421498,
                            -1.6189993074332032
                        ],
                        "bias": -2.3879351374870623
                    }
                ]
            }
        ]
    },
    {
        "input": [
            5.1,
            3.3,
            1.7,
            0.5
        ],
        "expected": [
            1,
            0,
            0
        ],
        "output": [
            0.9853691337010969,
            0.01105020005635098,
            0.00102718710084096
        ],
        "error": [
            -0.014630866298903089,
            0.01105020005635098,
            0.00102718710084096
        ],
        "mse": 0.00011240809442729714,
        "layers": [
            {
                "layer_index": 0,
                "outputs": [
                    0.9999999999999705,
                    5.496679862536254e-22,
                    0.9999999997487672,
                    6.886484765316573e-05,
                    1.1298738195397071e-13,
                    0.9801265844599096
                ],
                "neurons": [
                    {
                        "weights": [
                            6.0655555380637916,
                            4.005667959138907,
                            -7.773598318411387,
                            -10.693106758991943
                        ],
                        "bias": 5.561415561058935
                    },
                    {
                        "weights": [
                            -9.37449920149064,
                            -6.169911137344645,
                            11.95866481730712,
                            16.634851077392426
                        ],
                        "bias": -9.429230844543245
                    },
                    {
                        "weights": [
                            4.028232121434521,
                            2.9485511870668906,
                            -5.428425358743208,
                            -7.687802115095928
                        ],
                        "bias": 4.902662476752064
                    },
                    {
                        "weights": [
                            -0.7927607404519915,
                            -2.8500764207897387,
                            2.3500673762166358,
                            3.4534351626334514
                        ],
                        "bias": -1.8567959926056488
                    },
                    {
                        "weights": [
                            -5.697535707568222,
                            -3.724833743917741,
                            7.1438857524904025,
                            10.496906834032382
                        ],
                        "bias": -5.8551759792806894
                    },
                    {
                        "weights": [
                            0.5935096417949839,
                            2.322206470162191,
                            -3.842248410814368,
                            -1.5658855030879404
                        ],
                        "bias": 0.5228833202689811
                    }
                ]
            },
            {
                "layer_index": 1,
                "outputs": [
                    0.9853691337010969,
                    0.01105020005635098,
                    0.00102718710084096
                ],
                "neurons": [
                    {
                        "weights": [
                            -0.08942065911684033,
                            -1.8700035337864755,
                            -0.624787108085256,
                            -4.109385470275586,
                            -1.6370378662756535,
                            7.381155225093793
                        ],
                        "bias": -2.3100928020423996
                    },
                    {
                        "weights": [
                            1.5982847575869825,
                            -2.427398681654766,
                            1.194490193921329,
                            -0.5131461524741957,
                            -1.7331010331766497,
                            -8.767561226799915
                        ],
                        "bias": 1.306385186301474
                    },
                    {
                        "weights": [
                            -1.655629430071306,
                            2.463106049743376,
                            -1.2496565499411272,
                            2.0607167046484665,
                            1.2616235257421498,
                            -1.6189993074332032
                        ],
                        "bias": -2.3879351374870623
                    }
                ]
            }
        ]
    },
    {
        "input": [
            5.0,
            3.4,
            1.5,
            0.2
        ],
        "expected": [
            1,
            0,
            0
        ],
        "output": [
            0.9868809436289876,
            0.00970592468409857,
            0.0010025271480373502
        ],
        "error": [
            -0.013119056371012405,
            0.00970592468409857,
            0.0010025271480373502
        ],
        "mse": 8.910655824058234e-05,
        "layers": [
            {
                "layer_index": 0,
                "outputs": [
                    0.9999999999999998,
                    4.712271423600801e-25,
                    0.9999999999905849,
                    1.243390101878764e-05,
                    1.4143883045294975e-15,
                    0.9950793596157744
                ],
                "neurons": [
                    {
                        "weights": [
                            6.0655555380637916,
                            4.005667959138907,
                            -7.773598318411387,
                            -10.693106758991943
                        ],
                        "bias": 5.561415561058935
                    },
                    {
                        "weights": [
                            -9.37449920149064,
                            -6.169911137344645,
                            11.95866481730712,
                            16.634851077392426
                        ],
                        "bias": -9.429230844543245
                    },
                    {
                        "weights": [
                            4.028232121434521,
                            2.9485511870668906,
                            -5.428425358743208,
                            -7.687802115095928
                        ],
                        "bias": 4.902662476752064
                    },
                    {
                        "weights": [
                            -0.7927607404519915,
                            -2.8500764207897387,
                            2.3500673762166358,
                            3.4534351626334514
                        ],
                        "bias": -1.8567959926056488
                    },
                    {
                        "weights": [
                            -5.697535707568222,
                            -3.724833743917741,
                            7.1438857524904025,
                            10.496906834032382
                        ],
                        "bias": -5.8551759792806894
                    },
                    {
                        "weights": [
                            0.5935096417949839,
                            2.322206470162191,
                            -3.842248410814368,
                            -1.5658855030879404
                        ],
                        "bias": 0.5228833202689811
                    }
                ]
            },
            {
                "layer_index": 1,
                "outputs": [
                    0.9868809436289876,
                    0.00970592468409857,
                    0.0010025271480373502
                ],
                "neurons": [
                    {
                        "weights": [
                            -0.08942065911684033,
                            -1.8700035337864755,
                            -0.624787108085256,
                            -4.109385470275586,
                            -1.6370378662756535,
                            7.381155225093793
                        ],
                        "bias": -2.3100928020423996
                    },
                    {
                        "weights": [
                            1.5982847575869825,
                            -2.427398681654766,
                            1.194490193921329,
                            -0.5131461524741957,
                            -1.7331010331766497,
                            -8.767561226799915
                        ],
                        "bias": 1.306385186301474
                    },
                    {
                        "weights": [
                            -1.655629430071306,
                            2.463106049743376,
                            -1.2496565499411272,
                            2.0607167046484665,
                            1.2616235257421498,
                            -1.6189993074332032
                        ],
                        "bias": -2.3879351374870623
                    }
                ]
            }
        ]
    },
    {
        "input": [
            4.4,
            2.9,
            1.4,
            0.2
        ],
        "expected": [
            1,
            0,
            0
        ],
        "output": [
            0.9858664591479223,
            0.010604077113675968,
            0.0010193164560914102
        ],
        "error": [
            -0.014133540852077742,
            0.010604077113675968,
            0.0010193164560914102
        ],
        "mse": 0.0001044141448292652,
        "layers": [
            {
                "layer_index": 0,
                "outputs": [
                    0.9999999999999598,
                    8.638279026050435e-22,
                    0.9999999997320783,
                    6.576325718280136e-05,
                    1.360805330500364e-13,
                    0.9848784839268866
                ],
                "neurons": [
                    {
                        "weights": [
                            6.0655555380637916,
                            4.005667959138907,
                            -7.773598318411387,
                            -10.693106758991943
                        ],
                        "bias": 5.561415561058935
                    },
                    {
                        "weights": [
                            -9.37449920149064,
                            -6.169911137344645,
                            11.95866481730712,
                            16.634851077392426
                        ],
                        "bias": -9.429230844543245
                    },
                    {
                        "weights": [
                            4.028232121434521,
                            2.9485511870668906,
                            -5.428425358743208,
                            -7.687802115095928
                        ],
                        "bias": 4.902662476752064
                    },
                    {
                        "weights": [
                            -0.7927607404519915,
                            -2.8500764207897387,
                            2.3500673762166358,
                            3.4534351626334514
                        ],
                        "bias": -1.8567959926056488
                    },
                    {
                        "weights": [
                            -5.697535707568222,
                            -3.724833743917741,
                            7.1438857524904025,
                            10.496906834032382
                        ],
                        "bias": -5.8551759792806894
                    },
                    {
                        "weights": [
                            0.5935096417949839,
                            2.322206470162191,
                            -3.842248410814368,
                            -1.5658855030879404
                        ],
                        "bias": 0.5228833202689811
                    }
                ]
            },
            {
                "layer_index": 1,
                "outputs": [
                    0.9858664591479223,
                    0.010604077113675968,
                    0.0010193164560914102
                ],
                "neurons": [
                    {
                        "weights": [
                            -0.08942065911684033,
                            -1.8700035337864755,
                            -0.624787108085256,
                            -4.109385470275586,
                            -1.6370378662756535,
                            7.381155225093793
                        ],
                        "bias": -2.3100928020423996
                    },
                    {
                        "weights": [
                            1.5982847575869825,
                            -2.427398681654766,
                            1.194490193921329,
                            -0.5131461524741957,
                            -1.7331010331766497,
                            -8.767561226799915
                        ],
                        "bias": 1.306385186301474
                    },
                    {
                        "weights": [
                            -1.655629430071306,
                            2.463106049743376,
                            -1.2496565499411272,
                            2.0607167046484665,
                            1.2616235257421498,
                            -1.6189993074332032
                        ],
                        "bias": -2.3879351374870623
                    }
                ]
            }
        ]
    },
    {
        "input": [
            6.7,
            2.5,
            5.8,
            1.8
        ],
        "expected": [
            0,
            0,
            1
        ],
        "output": [
            4.964271834993034e-05,
            0.03355606493027567,
            0.967231385831978
        ],
        "error": [
            4.964271834993034e-05,
            0.03355606493027567,
            -0.032768614168022014
        ],
        "mse": 0.0007332646774990183,
        "layers": [
            {
                "layer_index": 0,
                "outputs": [
                    0.0002975428123941625,
                    0.9999911919400293,
                    0.0023296259201794926,
                    0.9961394979615913,
                    0.9990781631919788,
                    3.741081288710544e-07
                ],
                "neurons": [
                    {
                        "weights": [
                            6.0655555380637916,
                            4.005667959138907,
                            -7.773598318411387,
                            -10.693106758991943
                        ],
                        "bias": 5.561415561058935
                    },
                    {
                        "weights": [
                            -9.37449920149064,
                            -6.169911137344645,
                            11.95866481730712,
                            16.634851077392426
                        ],
                        "bias": -9.429230844543245
                    },
                    {
                        "weights": [
                            4.028232121434521,
                            2.9485511870668906,
                            -5.428425358743208,
                            -7.687802115095928
                        ],
                        "bias": 4.902662476752064
                    },
                    {
                        "weights": [
                            -0.7927607404519915,
                            -2.8500764207897387,
                            2.3500673762166358,
                            3.4534351626334514
                        ],
                        "bias": -1.8567959926056488
                    },
                    {
                        "weights": [
                            -5.697535707568222,
                            -3.724833743917741,
                            7.1438857524904025,
                            10.496906834032382
                        ],
                        "bias": -5.8551759792806894
                    },
                    {
                        "weights": [
                            0.5935096417949839,
                            2.322206470162191,
                            -3.842248410814368,
                            -1.5658855030879404
                        ],
                        "bias": 0.5228833202689811
                    }
                ]
            },
            {
                "layer_index": 1,
                "outputs": [
                    4.964271834993034e-05,
                    0.03355606493027567,
                    0.967231385831978
                ],
                "neurons": [
                    {
                        "weights": [
                            -0.08942065911684033,
                            -1.8700035337864755,
                            -0.624787108085256,
                            -4.109385470275586,
                            -1.6370378662756535,
                            7.381155225093793
                        ],
                        "bias": -2.3100928020423996
                    },
                    {
                        "weights": [
                            1.5982847575869825,
                            -2.427398681654766,
                            1.194490193921329,
                            -0.5131461524741957,
                            -1.7331010331766497,
                            -8.767561226799915
                        ],
                        "bias": 1.306385186301474
                    },
                    {
                        "weights": [
                            -1.655629430071306,
                            2.463106049743376,
                            -1.2496565499411272,
                            2.0607167046484665,
                            1.2616235257421498,
                            -1.6189993074332032
                        ],
                        "bias": -2.3879351374870623
                    }
                ]
            }
        ]
    },
    {
        "input": [
            4.6,
            3.6,
            1.0,
            0.2
        ],
        "expected": [
            1,
            0,
            0
        ],
        "output": [
            0.9872901340045583,
            0.009346656035812214,
            0.0009954889576706727
        ],
        "error": [
            -0.01270986599544166,
            0.009346656035812214,
            0.0009954889576706727
        ],
        "mse": 8.329722364623779e-05,
        "layers": [
            {
                "layer_index": 0,
                "outputs": [
                    1.0,
                    1.4758589876471016e-26,
                    0.9999999999982674,
                    2.9816936305640335e-06,
                    1.8429856547253934e-16,
                    0.9994232619369912
                ],
                "neurons": [
                    {
                        "weights": [
                            6.0655555380637916,
                            4.005667959138907,
                            -7.773598318411387,
                            -10.693106758991943
                        ],
                        "bias": 5.561415561058935
                    },
                    {
                        "weights": [
                            -9.37449920149064,
                            -6.169911137344645,
                            11.95866481730712,
                            16.634851077392426
                        ],
                        "bias": -9.429230844543245
                    },
                    {
                        "weights": [
                            4.028232121434521,
                            2.9485511870668906,
                            -5.428425358743208,
                            -7.687802115095928
                        ],
                        "bias": 4.902662476752064
                    },
                    {
                        "weights": [
                            -0.7927607404519915,
                            -2.8500764207897387,
                            2.3500673762166358,
                            3.4534351626334514
                        ],
                        "bias": -1.8567959926056488
                    },
                    {
