[
    {
        "input": [
            6.7,
            3.3,
            5.7,
            2.5
        ],
        "expected": [
            0,
            0,
            1
        ],
        "output": [
            0.0012106093967950038,
            0.036856964852733945,
            0.9762756938287992
        ],
        "error": [
            0.0012106093967950038,
            0.036856964852733945,
            -0.023724306171200804
        ],
        "mse": 0.0006409147121907167,
        "layers": [
            {
                "layer_index": 0,
                "outputs": [
                    0.999928510183052,
                    0.00026609707156377744,
                    0.9996896441051656,
                    0.12132673622408686,
                    0.00037821421530443984,
                    0.006210063490388694
                ],
                "neurons": [
                    {
                        "weights": [
                            -0.5749052494349688,
                            -1.5921357241109386,
                            2.885967501260761,
                            1.1071271022690734
                        ],
                        "bias": -0.566035405737106
                    },
                    {
                        "weights": [
                            0.47574655647697345,
                            1.6808269783413259,
                            -2.593618770800877,
                            -0.874526777402608
                        ],
                        "bias": 0.004329727568402548
                    },
                    {
                        "weights": [
                            -3.5125081007707424,
                            -5.051425043247491,
                            5.899207712634187,
                            7.539361638769056
                        ],
                        "bias": -4.192900673986497
                    },
                    {
                        "weights": [
                            -0.3367283751796198,
                            -0.09218074805289816,
                            0.20897334421125263,
                            -0.1661460325095665
                        ],
                        "bias": -0.1954323077583293
                    },
                    {
                        "weights": [
                            -0.4734824865501739,
                            -0.6360109928063264,
                            -0.4997620762236397,
                            -0.06968986446019423
                        ],
                        "bias": 0.4143659018206728
                    },
                    {
                        "weights": [
                            2.012849221679685,
                            2.536983391096137,
                            -3.178231644597706,
                            -4.476440518608285
                        ],
                        "bias": 2.373531961801075
                    }
                ]
            },
            {
                "layer_index": 1,
                "outputs": [
                    0.0012106093967950038,
                    0.036856964852733945,
                    0.9762756938287992
                ],
                "neurons": [
                    {
                        "weights": [
                            -4.2479746234615625,
                            3.60254925133292,
                            -1.902373477134057,
                            0.1647976569589804,
                            -0.3291567857923074,
                            1.0267996271884392
                        ],
                        "bias": -0.5931710575820685
                    },
                    {
                        "weights": [
                            4.177798828449121,
                            -4.10026575088136,
                            -6.257746201806771,
                            0.5295237955350399,
                            0.2966142687765607,
                            1.521221577357988
                        ],
                        "bias": -1.2575668017357622
                    },
                    {
                        "weights": [
                            0.0910333572170766,
                            -2.3370245303340456,
                            4.593790504988279,
                            -0.14032740306500538,
                            0.11836811415385251,
                            -4.563922130324694
                        ],
                        "bias": -0.9202019051230531
                    }
                ]
            }
        ]
    },
    {
        "input": [
            5.0,
            3.5,
            1.6,
            0.6
        ],
        "expected": [
            1,
            0,
            0
        ],
        "output": [
            0.97933044248994,
            0.027599970918207643,
            0.0004208648091351205
        ],
        "error": [
            -0.020669557510060055,
            0.027599970918207643,
            0.0004208648091351205
        ],
        "mse": 0.00039638870984505195,
        "layers": [
            {
                "layer_index": 0,
                "outputs": [
                    0.023402941411538272,
                    0.9731807739356209,
                    8.653307434134256e-12,
                    0.12270749084845474,
                    0.0065578159931936044,
                    0.9999986909204557
                ],
                "neurons": [
                    {
                        "weights": [
                            -0.5749052494349688,
                            -1.5921357241109386,
                            2.885967501260761,
                            1.1071271022690734
                        ],
                        "bias": -0.566035405737106
                    },
                    {
                        "weights": [
                            0.47574655647697345,
                            1.6808269783413259,
                            -2.593618770800877,
                            -0.874526777402608
                        ],
                        "bias": 0.004329727568402548
                    },
                    {
                        "weights": [
                            -3.5125081007707424,
                            -5.051425043247491,
                            5.899207712634187,
                            7.539361638769056
                        ],
                        "bias": -4.192900673986497
                    },
                    {
                        "weights": [
                            -0.3367283751796198,
                            -0.09218074805289816,
                            0.20897334421125263,
                            -0.1661460325095665
                        ],
                        "bias": -0.1954323077583293
                    },
                    {
                        "weights": [
                            -0.4734824865501739,
                            -0.6360109928063264,
                            -0.4997620762236397,
                            -0.06968986446019423
                        ],
                        "bias": 0.4143659018206728
                    },
                    {
                        "weights": [
                            2.012849221679685,
                            2.536983391096137,
                            -3.178231644597706,
                            -4.476440518608285
                        ],
                        "bias": 2.373531961801075
                    }
                ]
            },
            {
                "layer_index": 1,
                "outputs": [
                    0.97933044248994,
                    0.027599970918207643,
                    0.0004208648091351205
                ],
                "neurons": [
                    {
                        "weights": [
                            -4.2479746234615625,
                            3.60254925133292,
                            -1.902373477134057,
                            0.1647976569589804,
                            -0.3291567857923074,
                            1.0267996271884392
                        ],
                        "bias": -0.5931710575820685
                    },
                    {
                        "weights": [
                            4.177798828449121,
                            -4.10026575088136,
                            -6.257746201806771,
                            0.5295237955350399,
                            0.2966142687765607,
                            1.521221577357988
                        ],
                        "bias": -1.2575668017357622
                    },
                    {
                        "weights": [
                            0.0910333572170766,
                            -2.3370245303340456,
                            4.593790504988279,
                            -0.14032740306500538,
                            0.11836811415385251,
                            -4.563922130324694
                        ],
                        "bias": -0.9202019051230531
                    }
                ]
            }
        ]
    },
    {
        "input": [
            6.5,
            2.8,
            4.6,
            1.5
        ],
        "expected": [
            0,
            1,
            0
        ],
        "output": [
            0.01599064420059476,
            0.9770589616760187,
            0.016263057936210423
        ],
        "error": [
            0.01599064420059476,
            -0.02294103832398131,
            0.016263057936210423
        ],
        "mse": 0.0003488263315896436,
        "layers": [
            {
                "layer_index": 0,
                "outputs": [
                    0.9979240154315999,
                    0.0043231492517795105,
                    0.06164157018115182,
                    0.12672683941359963,
                    0.001060936905607185,
                    0.7731315804465673
                ],
                "neurons": [
                    {
                        "weights": [
                            -0.5749052494349688,
                            -1.5921357241109386,
                            2.885967501260761,
                            1.1071271022690734
                        ],
                        "bias": -0.566035405737106
                    },
                    {
                        "weights": [
                            0.47574655647697345,
                            1.6808269783413259,
                            -2.593618770800877,
                            -0.874526777402608
                        ],
                        "bias": 0.004329727568402548
                    },
                    {
                        "weights": [
                            -3.5125081007707424,
                            -5.051425043247491,
                            5.899207712634187,
                            7.539361638769056
                        ],
                        "bias": -4.192900673986497
                    },
                    {
                        "weights": [
                            -0.3367283751796198,
                            -0.09218074805289816,
                            0.20897334421125263,
                            -0.1661460325095665
                        ],
                        "bias": -0.1954323077583293
                    },
                    {
                        "weights": [
                            -0.4734824865501739,
                            -0.6360109928063264,
                            -0.4997620762236397,
                            -0.06968986446019423
                        ],
                        "bias": 0.4143659018206728
                    },
                    {
                        "weights": [
                            2.012849221679685,
                            2.536983391096137,
                            -3.178231644597706,
                            -4.476440518608285
                        ],
                        "bias": 2.373531961801075
                    }
                ]
            },
            {
                "layer_index": 1,
                "outputs": [
                    0.01599064420059476,
                    0.9770589616760187,
                    0.016263057936210423
                ],
                "neurons": [
                    {
                        "weights": [
                            -4.2479746234615625,
                            3.60254925133292,
                            -1.902373477134057,
                            0.1647976569589804,
                            -0.3291567857923074,
                            1.0267996271884392
                        ],
                        "bias": -0.5931710575820685
                    },
                    {
                        "weights": [
                            4.177798828449121,
                            -4.10026575088136,
                            -6.257746201806771,
                            0.5295237955350399,
                            0.2966142687765607,
                            1.521221577357988
                        ],
                        "bias": -1.2575668017357622
                    },
                    {
                        "weights": [
                            0.0910333572170766,
                            -2.3370245303340456,
                            4.593790504988279,
                            -0.14032740306500538,
                            0.11836811415385251,
                            -4.563922130324694
                        ],
                        "bias": -0.9202019051230531
                    }
                ]
            }
        ]
    },
    {
        "input": [
            5.5,
            2.5,
            4.0,
            1.3
        ],
        "expected": [
            0,
            1,
            0
        ],
        "output": [
            0.01666804113277925,
            0.9770671444355998,
            0.01558097234567309
        ],
        "error": [
            0.01666804113277925,
            -0.022932855564400167,
            0.01558097234567309
        ],
        "mse": 0.00034883538625943007,
        "layers": [
            {
                "layer_index": 0,
                "outputs": [
                    0.994906997124619,
                    0.009117894419410867,
                    0.06052544638704014,
                    0.1600324427644263,
                    0.0028164422590192875,
                    0.7780540146314426
                ],
                "neurons": [
                    {
                        "weights": [
                            -0.5749052494349688,
                            -1.5921357241109386,
                            2.885967501260761,
                            1.1071271022690734
                        ],
                        "bias": -0.566035405737106
                    },
                    {
                        "weights": [
                            0.47574655647697345,
                            1.6808269783413259,
                            -2.593618770800877,
                            -0.874526777402608
                        ],
                        "bias": 0.004329727568402548
                    },
                    {
                        "weights": [
                            -3.5125081007707424,
                            -5.051425043247491,
                            5.899207712634187,
                            7.539361638769056
                        ],
                        "bias": -4.192900673986497
                    },
                    {
                        "weights": [
                            -0.3367283751796198,
                            -0.09218074805289816,
                            0.20897334421125263,
                            -0.1661460325095665
                        ],
                        "bias": -0.1954323077583293
                    },
                    {
                        "weights": [
                            -0.4734824865501739,
                            -0.6360109928063264,
                            -0.4997620762236397,
                            -0.06968986446019423
                        ],
                        "bias": 0.4143659018206728
                    },
                    {
                        "weights": [
                            2.012849221679685,
                            2.536983391096137,
                            -3.178231644597706,
                            -4.476440518608285
                        ],
                        "bias": 2.373531961801075
                    }
                ]
            },
            {
                "layer_index": 1,
                "outputs": [
                    0.01666804113277925,
                    0.9770671444355998,
                    0.01558097234567309
                ],
                "neurons": [
                    {
                        "weights": [
                            -4.2479746234615625,
                            3.60254925133292,
                            -1.902373477134057,
                            0.1647976569589804,
                            -0.3291567857923074,
                            1.0267996271884392
                        ],
                        "bias": -0.5931710575820685
                    },
                    {
                        "weights": [
                            4.177798828449121,
                            -4.10026575088136,
                            -6.257746201806771,
                            0.5295237955350399,
                            0.2966142687765607,
                            1.521221577357988
                        ],
                        "bias": -1.2575668017357622
                    },
                    {
                        "weights": [
                            0.0910333572170766,
                            -2.3370245303340456,
                            4.593790504988279,
                            -0.14032740306500538,
                            0.11836811415385251,
                            -4.563922130324694
                        ],
                        "bias": -0.9202019051230531
                    }
                ]
            }
        ]
    },
    {
        "input": [
            5.4,
            3.4,
            1.7,
            0.2
        ],
        "expected": [
            1,
            0,
            0
        ],
        "output": [
            0.979915907478049,
            0.0267235299272061,
            0.0004181464416460921
        ],
        "error": [
            -0.02008409252195098,
            0.0267235299272061,
            0.0004181464416460921
        ],
        "mse": 0.00037256422354907626,
        "layers": [
            {
                "layer_index": 0,
                "outputs": [
                    0.018776115539691156,
                    0.9759696902970473,
                    3.1106822743923354e-13,
                    0.1186627836592331,
                    0.0056613784818407,
                    0.9999998270701059
                ],
                "neurons": [
                    {
                        "weights": [
                            -0.5749052494349688,
                            -1.5921357241109386,
                            2.885967501260761,
                            1.1071271022690734
                        ],
                        "bias": -0.566035405737106
                    },
                    {
                        "weights": [
                            0.47574655647697345,
                            1.6808269783413259,
                            -2.593618770800877,
                            -0.874526777402608
                        ],
                        "bias": 0.004329727568402548
                    },
                    {
                        "weights": [
                            -3.5125081007707424,
                            -5.051425043247491,
                            5.899207712634187,
                            7.539361638769056
                        ],
                        "bias": -4.192900673986497
                    },
                    {
                        "weights": [
                            -0.3367283751796198,
                            -0.09218074805289816,
                            0.20897334421125263,
                            -0.1661460325095665
                        ],
                        "bias": -0.1954323077583293
                    },
                    {
                        "weights": [
                            -0.4734824865501739,
                            -0.6360109928063264,
                            -0.4997620762236397,
                            -0.06968986446019423
                        ],
                        "bias": 0.4143659018206728
                    },
                    {
                        "weights": [
                            2.012849221679685,
                            2.536983391096137,
                            -3.178231644597706,
                            -4.476440518608285
                        ],
                        "bias": 2.373531961801075
                    }
                ]
            },
            {
                "layer_index": 1,
                "outputs": [
                    0.979915907478049,
                    0.0267235299272061,
                    0.0004181464416460921
                ],
                "neurons": [
                    {
                        "weights": [
                            -4.2479746234615625,
                            3.60254925133292,
                            -1.902373477134057,
                            0.1647976569589804,
                            -0.3291567857923074,
                            1.0267996271884392
                        ],
                        "bias": -0.5931710575820685
                    },
                    {
                        "weights": [
                            4.177798828449121,
                            -4.10026575088136,
                            -6.257746201806771,
                            0.5295237955350399,
                            0.2966142687765607,
                            1.521221577357988
                        ],
                        "bias": -1.2575668017357622
                    },
                    {
                        "weights": [
                            0.0910333572170766,
                            -2.3370245303340456,
                            4.593790504988279,
                            -0.14032740306500538,
                            0.11836811415385251,
                            -4.563922130324694
                        ],
                        "bias": -0.9202019051230531
                    }
                ]
            }
        ]
    },
    {
        "input": [
            6.3,
            2.9,
            5.6,
            1.8
        ],
        "expected": [
            0,
            0,
            1
        ],
        "output": [
            0.001255864112866538,
            0.03959883058856383,
            0.9730128787753645
        ],
        "error": [
            0.001255864112866538,
            0.03959883058856383,
            -0.026987121224635535
        ],
        "mse": 0.0007659830968816461,
        "layers": [
            {
                "layer_index": 0,
                "outputs": [
                    0.9999129651332801,
                    0.00026847559100447844,
                    0.9964440821430283,
                    0.1527805244062233,
                    0.000650502290146949,
                    0.03094960891551713
                ],
                "neurons": [
                    {
                        "weights": [
                            -0.5749052494349688,
                            -1.5921357241109386,
                            2.885967501260761,
                            1.1071271022690734
                        ],
                        "bias": -0.566035405737106
                    },
                    {
                        "weights": [
                            0.47574655647697345,
                            1.6808269783413259,
                            -2.593618770800877,
                            -0.874526777402608
                        ],
                        "bias": 0.004329727568402548
                    },
                    {
                        "weights": [
                            -3.5125081007707424,
                            -5.051425043247491,
                            5.899207712634187,
                            7.539361638769056
                        ],
                        "bias": -4.192900673986497
                    },
                    {
                        "weights": [
                            -0.3367283751796198,
                            -0.09218074805289816,
                            0.20897334421125263,
                            -0.1661460325095665
                        ],
                        "bias": -0.1954323077583293
                    },
                    {
                        "weights": [
                            -0.4734824865501739,
                            -0.6360109928063264,
                            -0.4997620762236397,
                            -0.06968986446019423
                        ],
                        "bias": 0.4143659018206728
                    },
                    {
                        "weights": [
                            2.012849221679685,
                            2.536983391096137,
                            -3.178231644597706,
                            -4.476440518608285
                        ],
                        "bias": 2.373531961801075
                    }
                ]
            },
            {
                "layer_index": 1,
                "outputs": [
                    0.001255864112866538,
                    0.03959883058856383,
                    0.9730128787753645
                ],
                "neurons": [
                    {
                        "weights": [
                            -4.2479746234615625,
                            3.60254925133292,
                            -1.902373477134057,
                            0.1647976569589804,
                            -0.3291567857923074,
                            1.0267996271884392
                        ],
                        "bias": -0.5931710575820685
                    },
                    {
                        "weights": [
                            4.177798828449121,
                            -4.10026575088136,
                            -6.257746201806771,
                            0.5295237955350399,
                            0.2966142687765607,
                            1.521221577357988
                        ],
                        "bias": -1.2575668017357622
                    },
                    {
                        "weights": [
                            0.0910333572170766,
                            -2.3370245303340456,
                            4.593790504988279,
                            -0.14032740306500538,
                            0.11836811415385251,
                            -4.563922130324694
                        ],
                        "bias": -0.9202019051230531
                    }
                ]
            }
        ]
    },
    {
        "input": [
            6.2,
            2.9,
            4.3,
            1.3
        ],
        "expected": [
            0,
            1,
            0
        ],
        "output": [
            0.0219411588028229,
            0.9868781900896563,
            0.005832307762675726
        ],
        "error": [
            0.0219411588028229,
            -0.013121809910343729,
            0.005832307762675726
        ],
        "mse": 0.00022920405292415174,
        "layers": [
            {
                "layer_index": 0,
                "outputs": [
                    0.993947926857053,
                    0.011417905471538268,
                    0.004270178917244275,
                    0.13378757808955055,
                    0.0013514414695174845,
                    0.9384673550133278
                ],
                "neurons": [
                    {
                        "weights": [
                            -0.5749052494349688,
                            -1.5921357241109386,
                            2.885967501260761,
                            1.1071271022690734
                        ],
                        "bias": -0.566035405737106
                    },
                    {
                        "weights": [
                            0.47574655647697345,
                            1.6808269783413259,
                            -2.593618770800877,
                            -0.874526777402608
                        ],
                        "bias": 0.004329727568402548
                    },
                    {
                        "weights": [
                            -3.5125081007707424,
                            -5.051425043247491,
                            5.899207712634187,
                            7.539361638769056
                        ],
                        "bias": -4.192900673986497
                    },
                    {
                        "weights": [
                            -0.3367283751796198,
                            -0.09218074805289816,
                            0.20897334421125263,
                            -0.1661460325095665
                        ],
                        "bias": -0.1954323077583293
                    },
                    {
                        "weights": [
                            -0.4734824865501739,
                            -0.6360109928063264,
                            -0.4997620762236397,
                            -0.06968986446019423
                        ],
                        "bias": 0.4143659018206728
                    },
                    {
                        "weights": [
                            2.012849221679685,
                            2.536983391096137,
                            -3.178231644597706,
                            -4.476440518608285
                        ],
                        "bias": 2.373531961801075
                    }
                ]
            },
            {
                "layer_index": 1,
                "outputs": [
                    0.0219411588028229,
                    0.9868781900896563,
                    0.005832307762675726
                ],
                "neurons": [
                    {
                        "weights": [
                            -4.2479746234615625,
                            3.60254925133292,
                            -1.902373477134057,
                            0.1647976569589804,
                            -0.3291567857923074,
                            1.0267996271884392
                        ],
                        "bias": -0.5931710575820685
                    },
                    {
                        "weights": [
                            4.177798828449121,
                            -4.10026575088136,
                            -6.257746201806771,
                            0.5295237955350399,
                            0.2966142687765607,
                            1.521221577357988
                        ],
                        "bias": -1.2575668017357622
                    },
                    {
                        "weights": [
                            0.0910333572170766,
                            -2.3370245303340456,
                            4.593790504988279,
                            -0.14032740306500538,
                            0.11836811415385251,
                            -4.563922130324694
                        ],
                        "bias": -0.9202019051230531
                    }
                ]
            }
        ]
    },
    {
        "input": [
            4.9,
            3.0,
            1.4,
            0.2
        ],
        "expected": [
            1,
            0,
            0
        ],
        "output": [
            0.9796052241668763,
            0.027461379205855233,
            0.000420748121197348
        ],
        "error": [
            -0.020394775833123657,
            0.027461379205855233,
            0.000420748121197348
        ],
        "mse": 0.00039008375271754465,
        "layers": [
            {
                "layer_index": 0,
                "outputs": [
                    0.01988511411139795,
                    0.9726683328532026,
                    2.314789474963409e-12,
                    0.1343991117838488,
                    0.010693838242552657,
                    0.9999994969777425
                ],
                "neurons": [
                    {
                        "weights": [
                            -0.5749052494349688,
                            -1.5921357241109386,
                            2.885967501260761,
                            1.1071271022690734
                        ],
                        "bias": -0.566035405737106
                    },
                    {
                        "weights": [
                            0.47574655647697345,
                            1.6808269783413259,
                            -2.593618770800877,
                            -0.874526777402608
                        ],
                        "bias": 0.004329727568402548
                    },
                    {
                        "weights": [
                            -3.5125081007707424,
                            -5.051425043247491,
                            5.899207712634187,
                            7.539361638769056
                        ],
                        "bias": -4.192900673986497
                    },
                    {
                        "weights": [
                            -0.3367283751796198,
                            -0.09218074805289816,
                            0.20897334421125263,
                            -0.1661460325095665
                        ],
                        "bias": -0.1954323077583293
                    },
                    {
                        "weights": [
                            -0.4734824865501739,
                            -0.6360109928063264,
                            -0.4997620762236397,
                            -0.06968986446019423
                        ],
                        "bias": 0.4143659018206728
                    },
                    {
                        "weights": [
                            2.012849221679685,
                            2.536983391096137,
                            -3.178231644597706,
                            -4.476440518608285
                        ],
                        "bias": 2.373531961801075
                    }
                ]
            },
            {
                "layer_index": 1,
                "outputs": [
                    0.9796052241668763,
                    0.027461379205855233,
                    0.000420748121197348
                ],
                "neurons": [
                    {
                        "weights": [
                            -4.2479746234615625,
                            3.60254925133292,
                            -1.902373477134057,
                            0.1647976569589804,
                            -0.3291567857923074,
                            1.0267996271884392
                        ],
                        "bias": -0.5931710575820685
                    },
                    {
                        "weights": [
                            4.177798828449121,
                            -4.10026575088136,
                            -6.257746201806771,
                            0.5295237955350399,
                            0.2966142687765607,
                            1.521221577357988
                        ],
                        "bias": -1.2575668017357622
                    },
                    {
                        "weights": [
                            0.0910333572170766,
                            -2.3370245303340456,
                            4.593790504988279,
                            -0.14032740306500538,
                            0.11836811415385251,
                            -4.563922130324694
                        ],
                        "bias": -0.9202019051230531
                    }
                ]
            }
        ]
    },
    {
        "input": [
            6.1,
            2.8,
            4.0,
            1.3
        ],
        "expected": [
            0,
            1,
            0
        ],
        "output": [
            0.02376830421346586,
            0.9867839074640155,
            0.005086266823979011
        ],
        "error": [
            0.02376830421346586,
            -0.013216092535984547,
            0.005086266823979011
        ],
        "mse": 0.00025515583243609165,
        "layers": [
            {
                "layer_index": 0,
                "outputs": [
                    0.9884812984058401,
                    0.019866368728744463,
                    0.001717461128893059,
                    0.13150945414824844,
                    0.0017535582455207382,
                    0.961696824896497
                ],
                "neurons": [
                    {
                        "weights": [
                            -0.5749052494349688,
                            -1.5921357241109386,
                            2.885967501260761,
                            1.1071271022690734
                        ],
                        "bias": -0.566035405737106
                    },
                    {
                        "weights": [
                            0.47574655647697345,
                            1.6808269783413259,
                            -2.593618770800877,
                            -0.874526777402608
                        ],
                        "bias": 0.004329727568402548
                    },
                    {
                        "weights": [
                            -3.5125081007707424,
                            -5.051425043247491,
                            5.899207712634187,
                            7.539361638769056
                        ],
                        "bias": -4.192900673986497
                    },
                    {
                        "weights": [
                            -0.3367283751796198,
                            -0.09218074805289816,
                            0.20897334421125263,
                            -0.1661460325095665
                        ],
                        "bias": -0.1954323077583293
                    },
                    {
                        "weights": [
                            -0.4734824865501739,
                            -0.6360109928063264,
                            -0.4997620762236397,
                            -0.06968986446019423
                        ],
                        "bias": 0.4143659018206728
                    },
                    {
                        "weights": [
                            2.012849221679685,
                            2.536983391096137,
                            -3.178231644597706,
                            -4.476440518608285
                        ],
                        "bias": 2.373531961801075
                    }
                ]
            },
            {
                "layer_index": 1,
                "outputs": [
                    0.02376830421346586,
                    0.9867839074640155,
                    0.005086266823979011
                ],
                "neurons": [
                    {
                        "weights": [
                            -4.2479746234615625,
                            3.60254925133292,
                            -1.902373477134057,
                            0.1647976569589804,
                            -0.3291567857923074,
                            1.0267996271884392
                        ],
                        "bias": -0.5931710575820685
                    },
                    {
                        "weights": [
                            4.177798828449121,
                            -4.10026575088136,
                            -6.257746201806771,
                            0.5295237955350399,
                            0.2966142687765607,
                            1.521221577357988
                        ],
                        "bias": -1.2575668017357622
                    },
                    {
                        "weights": [
                            0.0910333572170766,
                            -2.3370245303340456,
                            4.593790504988279,
                            -0.14032740306500538,
                            0.11836811415385251,
                            -4.563922130324694
                        ],
                        "bias": -0.9202019051230531
                    }
                ]
            }
        ]
    },
    {
        "input": [
            5.8,
            2.8,
            5.1,
            2.4
        ],
        "expected": [
            0,
            0,
            1
        ],
        "output": [
            0.0012121995352562204,
            0.03714325118412489,
            0.9765408277552583
        ],
        "error": [
            0.0012121995352562204,
            0.03714325118412489,
            -0.0234591722447417
        ],
        "mse": 0.0006438077662162433,
        "layers": [
            {
                "layer_index": 0,
                "outputs": [
                    0.9998786940553288,
                    0.0003871370031324799,
                    0.9999229508124022,
                    0.14937017803502187,
                    0.0010810881093555207,
                    0.003015926578457204
                ],
                "neurons": [
                    {
                        "weights": [
                            -0.5749052494349688,
                            -1.5921357241109386,
                            2.885967501260761,
                            1.1071271022690734
                        ],
                        "bias": -0.566035405737106
                    },
                    {
                        "weights": [
                            0.47574655647697345,
                            1.6808269783413259,
                            -2.593618770800877,
                            -0.874526777402608
                        ],
                        "bias": 0.004329727568402548
                    },
                    {
                        "weights": [
                            -3.5125081007707424,
                            -5.051425043247491,
                            5.899207712634187,
                            7.539361638769056
                        ],
                        "bias": -4.192900673986497
                    },
                    {
                        "weights": [
                            -0.3367283751796198,
                            -0.09218074805289816,
                            0.20897334421125263,
                            -0.1661460325095665
                        ],
                        "bias": -0.1954323077583293
                    },
                    {
                        "weights": [
                            -0.4734824865501739,
                            -0.6360109928063264,
                            -0.4997620762236397,
                            -0.06968986446019423
                        ],
                        "bias": 0.4143659018206728
                    },
                    {
                        "weights": [
                            2.012849221679685,
                            2.536983391096137,
                            -3.178231644597706,
                            -4.476440518608285
                        ],
                        "bias": 2.373531961801075
                    }
                ]
            },
            {
                "layer_index": 1,
                "outputs": [
                    0.0012121995352562204,
                    0.03714325118412489,
                    0.9765408277552583
                ],
                "neurons": [
                    {
                        "weights": [
                            -4.2479746234615625,
                            3.60254925133292,
                            -1.902373477134057,
                            0.1647976569589804,
                            -0.3291567857923074,
                            1.0267996271884392
                        ],
                        "bias": -0.5931710575820685
                    },
                    {
                        "weights": [
                            4.177798828449121,
                            -4.10026575088136,
                            -6.257746201806771,
                            0.5295237955350399,
                            0.2966142687765607,
                            1.521221577357988
                        ],
                        "bias": -1.2575668017357622
                    },
                    {
                        "weights": [
                            0.0910333572170766,
                            -2.3370245303340456,
                            4.593790504988279,
                            -0.14032740306500538,
                            0.11836811415385251,
                            -4.563922130324694
                        ],
                        "bias": -0.9202019051230531
                    }
                ]
            }
        ]
    },
    {
        "input": [
            6.3,
            3.3,
            4.7,
            1.6
        ],
        "expected": [
            0,
            1,
            0
        ],
        "output": [
            0.01715548036256564,
            0.9803308213129758,
            0.013523740643139904
        ],
        "error": [
            0.01715548036256564,
            -0.019669178687024225,
            0.013523740643139904
        ],
        "mse": 0.00028802621922512583,
        "layers": [
            {
                "layer_index": 0,
                "outputs": [
                    0.9972501746156291,
                    0.006425791082769597,
                    0.03908491413294151,
                    0.12958010473255518,
                    0.0008018429872754232,
                    0.7902666883607823
                ],
                "neurons": [
                    {
                        "weights": [
                            -0.5749052494349688,
                            -1.5921357241109386,
                            2.885967501260761,
                            1.1071271022690734
                        ],
                        "bias": -0.566035405737106
                    },
                    {
                        "weights": [
                            0.47574655647697345,
                            1.6808269783413259,
                            -2.593618770800877,
                            -0.874526777402608
                        ],
                        "bias": 0.004329727568402548
                    },
                    {
                        "weights": [
                            -3.5125081007707424,
                            -5.051425043247491,
                            5.899207712634187,
                            7.539361638769056
                        ],
                        "bias": -4.192900673986497
                    },
                    {
                        "weights": [
                            -0.3367283751796198,
                            -0.09218074805289816,
                            0.20897334421125263,
                            -0.1661460325095665
                        ],
                        "bias": -0.1954323077583293
                    },
                    {
                        "weights": [
                            -0.4734824865501739,
                            -0.6360109928063264,
                            -0.4997620762236397,
                            -0.06968986446019423
                        ],
                        "bias": 0.4143659018206728
                    },
                    {
                        "weights": [
                            2.012849221679685,
                            2.536983391096137,
                            -3.178231644597706,
                            -4.476440518608285
                        ],
                        "bias": 2.373531961801075
                    }
                ]
            },
            {
                "layer_index": 1,
                "outputs": [
                    0.01715548036256564,
                    0.9803308213129758,
                    0.013523740643139904
                ],
                "neurons": [
                    {
                        "weights": [
                            -4.2479746234615625,
                            3.60254925133292,
                            -1.902373477134057,
                            0.1647976569589804,
                            -0.3291567857923074,
                            1.0267996271884392
                        ],
                        "bias": -0.5931710575820685
                    },
                    {
                        "weights": [
                            4.177798828449121,
                            -4.10026575088136,
                            -6.257746201806771,
                            0.5295237955350399,
                            0.2966142687765607,
                            1.521221577357988
                        ],
                        "bias": -1.2575668017357622
                    },
                    {
                        "weights": [
                            0.0910333572170766,
                            -2.3370245303340456,
                            4.593790504988279,
                            -0.14032740306500538,
                            0.11836811415385251,
                            -4.563922130324694
                        ],
                        "bias": -0.9202019051230531
                    }
                ]
            }
        ]
    },
    {
        "input": [
            7.3,
            2.9,
            6.3,
            1.8
        ],
        "expected": [
            0,
            0,
            1
        ],
        "output": [
            0.0012387967963181405,
            0.03846551996270527,
            0.9739793592514275
        ],
        "error": [
            0.0012387967963181405,
            0.03846551996270527,
            -0.026020640748572466
        ],
        "mse": 0.0007194015294900387,
        "layers": [
            {
                "layer_index": 0,
                "outputs": [
                    0.9999794860872159,
                    7.032811157550389e-05,
                    0.9980780997211784,
                    0.1297236477882867,
                    0.00028565760096589286,
                    0.025188190562080742
                ],
                "neurons": [
                    {
                        "weights": [
                            -0.5749052494349688,
                            -1.5921357241109386,
                            2.885967501260761,
                            1.1071271022690734
                        ],
                        "bias": -0.566035405737106
                    },
                    {
                        "weights": [
                            0.47574655647697345,
                            1.6808269783413259,
                            -2.593618770800877,
                            -0.874526777402608
                        ],
                        "bias": 0.004329727568402548
                    },
                    {
                        "weights": [
                            -3.5125081007707424,
                            -5.051425043247491,
                            5.899207712634187,
                            7.539361638769056
                        ],
                        "bias": -4.192900673986497
                    },
                    {
                        "weights": [
                            -0.3367283751796198,
                            -0.09218074805289816,
                            0.20897334421125263,
                            -0.1661460325095665
                        ],
                        "bias": -0.1954323077583293
                    },
                    {
                        "weights": [
                            -0.4734824865501739,
                            -0.6360109928063264,
                            -0.4997620762236397,
                            -0.06968986446019423
                        ],
                        "bias": 0.4143659018206728
                    },
                    {
                        "weights": [
                            2.012849221679685,
                            2.536983391096137,
                            -3.178231644597706,
                            -4.476440518608285
                        ],
                        "bias": 2.373531961801075
                    }
                ]
            },
            {
                "layer_index": 1,
                "outputs": [
                    0.0012387967963181405,
                    0.03846551996270527,
                    0.9739793592514275
                ],
                "neurons": [
                    {
                        "weights": [
                            -4.2479746234615625,
                            3.60254925133292,
                            -1.902373477134057,
                            0.1647976569589804,
                            -0.3291567857923074,
                            1.0267996271884392
                        ],
                        "bias": -0.5931710575820685
                    },
                    {
                        "weights": [
                            4.177798828449121,
                            -4.10026575088136,
                            -6.257746201806771,
                            0.5295237955350399,
                            0.2966142687765607,
                            1.521221577357988
                        ],
                        "bias": -1.2575668017357622
                    },
                    {
                        "weights": [
                            0.0910333572170766,
                            -2.3370245303340456,
                            4.593790504988279,
                            -0.14032740306500538,
                            0.11836811415385251,
                            -4.563922130324694
                        ],
                        "bias": -0.9202019051230531
                    }
                ]
            }
        ]
    },
    {
        "input": [
            7.0,
            3.2,
            4.7,
            1.4
        ],
        "expected": [
            0,
            1,
            0
        ],
        "output": [
            0.02227260510467274,
            0.9877043688235253,
            0.005100804153301019
        ],
        "error": [
            0.02227260510467274,
            -0.012295631176474697,
            0.005100804153301019
        ],
        "mse": 0.00022442322906230785,
        "layers": [
            {
                "layer_index": 0,
                "outputs": [
                    0.9956308963539625,
                    0.009003088277959202,
                    0.0012748705206298734,
                    0.10929729552449632,
                    0.000622157923561452,
                    0.9669817093184605
                ],
                "neurons": [
                    {
                        "weights": [
                            -0.5749052494349688,
                            -1.5921357241109386,
                            2.885967501260761,
                            1.1071271022690734
                        ],
                        "bias": -0.566035405737106
                    },
                    {
                        "weights": [
                            0.47574655647697345,
                            1.6808269783413259,
                            -2.593618770800877,
                            -0.874526777402608
                        ],
                        "bias": 0.004329727568402548
                    },
                    {
                        "weights": [
                            -3.5125081007707424,
                            -5.051425043247491,
                            5.899207712634187,
                            7.539361638769056
                        ],
                        "bias": -4.192900673986497
                    },
                    {
                        "weights": [
                            -0.3367283751796198,
                            -0.09218074805289816,
                            0.20897334421125263,
                            -0.1661460325095665
                        ],
                        "bias": -0.1954323077583293
                    },
                    {
                        "weights": [
                            -0.4734824865501739,
                            -0.6360109928063264,
                            -0.4997620762236397,
                            -0.06968986446019423
                        ],
                        "bias": 0.4143659018206728
                    },
                    {
                        "weights": [
                            2.012849221679685,
                            2.536983391096137,
                            -3.178231644597706,
                            -4.476440518608285
                        ],
                        "bias": 2.373531961801075
                    }
                ]
            },
            {
                "layer_index": 1,
                "outputs": [
                    0.02227260510467274,
                    0.9877043688235253,
                    0.005100804153301019
                ],
                "neurons": [
                    {
                        "weights": [
                            -4.2479746234615625,
                            3.60254925133292,
                            -1.902373477134057,
                            0.1647976569589804,
                            -0.3291567857923074,
                            1.0267996271884392
                        ],
                        "bias": -0.5931710575820685
                    },
                    {
                        "weights": [
                            4.177798828449121,
                            -4.10026575088136,
                            -6.257746201806771,
                            0.5295237955350399,
                            0.2966142687765607,
                            1.521221577357988
                        ],
                        "bias": -1.2575668017357622
                    },
                    {
                        "weights": [
                            0.0910333572170766,
                            -2.3370245303340456,
                            4.593790504988279,
                            -0.14032740306500538,
                            0.11836811415385251,
                            -4.563922130324694
                        ],
                        "bias": -0.9202019051230531
                    }
                ]
            }
        ]
    },
    {
        "input": [
            6.2,
            3.4,
            5.4,
            2.3
        ],
        "expected": [
            0,
            0,
            1
        ],
        "output": [
            0.0012357026586096752,
            0.038191111422722586,
            0.974655802908155
        ],
        "error": [
            0.0012357026586096752,
            0.038191111422722586,
            -0.02534419709184499
        ],
        "mse": 0.0007008054263311969,
        "layers": [
            {
                "layer_index": 0,
                "outputs": [
                    0.9998135027272818,
                    0.0006433469492948918,
                    0.9976499301015183,
                    0.1358444162952513,
                    0.0005297027100388419,
                    0.018355077680366677
                ],
                "neurons": [
                    {
                        "weights": [
                            -0.5749052494349688,
                            -1.5921357241109386,
                            2.885967501260761,
                            1.1071271022690734
                        ],
                        "bias": -0.566035405737106
                    },
                    {
                        "weights": [
                            0.47574655647697345,
                            1.6808269783413259,
                            -2.593618770800877,
                            -0.874526777402608
                        ],
                        "bias": 0.004329727568402548
                    },
                    {
                        "weights": [
                            -3.5125081007707424,
                            -5.051425043247491,
                            5.899207712634187,
                            7.539361638769056
                        ],
                        "bias": -4.192900673986497
                    },
                    {
                        "weights": [
                            -0.3367283751796198,
                            -0.09218074805289816,
                            0.20897334421125263,
                            -0.1661460325095665
                        ],
                        "bias": -0.1954323077583293
                    },
                    {
                        "weights": [
                            -0.4734824865501739,
                            -0.6360109928063264,
                            -0.4997620762236397,
                            -0.06968986446019423
                        ],
                        "bias": 0.4143659018206728
                    },
                    {
                        "weights": [
                            2.012849221679685,
                            2.536983391096137,
                            -3.178231644597706,
                            -4.476440518608285
                        ],
                        "bias": 2.373531961801075
                    }
                ]
            },
            {
                "layer_index": 1,
                "outputs": [
                    0.0012357026586096752,
                    0.038191111422722586,
                    0.974655802908155
                ],
                "neurons": [
                    {
                        "weights": [
                            -4.2479746234615625,
                            3.60254925133292,
                            -1.902373477134057,
                            0.1647976569589804,
                            -0.3291567857923074,
                            1.0267996271884392
                        ],
                        "bias": -0.5931710575820685
                    },
                    {
                        "weights": [
                            4.177798828449121,
                            -4.10026575088136,
                            -6.257746201806771,
                            0.5295237955350399,
                            0.2966142687765607,
                            1.521221577357988
                        ],
                        "bias": -1.2575668017357622
                    },
                    {
                        "weights": [
                            0.0910333572170766,
                            -2.3370245303340456,
                            4.593790504988279,
                            -0.14032740306500538,
                            0.11836811415385251,
                            -4.563922130324694
                        ],
                        "bias": -0.9202019051230531
                    }
                ]
            }
        ]
    },
    {
        "input": [
            7.2,
            3.0,
            5.8,
            1.6
        ],
        "expected": [
            0,
            0,
            1
        ],
        "output": [
            0.002108209131319462,
            0.13202296296816587,
            0.8672868936967141
        ],
        "error": [
            0.002108209131319462,
            0.13202296296816587,
            -0.13271310630328592
        ],
        "mse": 0.01168242529376745,
        "layers": [
            {
                "layer_index": 0,
                "outputs": [
                    0.999880042669966,
                    0.0003455436967947361,
                    0.8376912521437636,
                    0.12453077683725217,
                    0.0003658706352752115,
                    0.24618720035568384
                ],
                "neurons": [
                    {
                        "weights": [
                            -0.5749052494349688,
                            -1.5921357241109386,
                            2.885967501260761,
                            1.1071271022690734
                        ],
                        "bias": -0.566035405737106
                    },
                    {
                        "weights": [
                            0.47574655647697345,
                            1.6808269783413259,
                            -2.593618770800877,
                            -0.874526777402608
                        ],
                        "bias": 0.004329727568402548
                    },
                    {
                        "weights": [
                            -3.5125081007707424,
                            -5.051425043247491,
                            5.899207712634187,
                            7.539361638769056
                        ],
                        "bias": -4.192900673986497
                    },
                    {
                        "weights": [
                            -0.3367283751796198,
                            -0.09218074805289816,
                            0.20897334421125263,
                            -0.1661460325095665
                        ],
                        "bias": -0.1954323077583293
                    },
                    {
                        "weights": [
                            -0.4734824865501739,
                            -0.6360109928063264,
                            -0.4997620762236397,
                            -0.06968986446019423
                        ],
                        "bias": 0.4143659018206728
                    },
                    {
                        "weights": [
                            2.012849221679685,
                            2.536983391096137,
                            -3.178231644597706,
                            -4.476440518608285
                        ],
                        "bias": 2.373531961801075
                    }
                ]
            },
            {
                "layer_index": 1,
                "outputs": [
                    0.002108209131319462,
                    0.13202296296816587,
                    0.8672868936967141
                ],
                "neurons": [
                    {
                        "weights": [
                            -4.2479746234615625,
                            3.60254925133292,
                            -1.902373477134057,
                            0.1647976569589804,
                            -0.3291567857923074,
                            1.0267996271884392
                        ],
                        "bias": -0.5931710575820685
                    },
                    {
                        "weights": [
                            4.177798828449121,
                            -4.10026575088136,
                            -6.257746201806771,
                            0.5295237955350399,
                            0.2966142687765607,
                            1.521221577357988
                        ],
                        "bias": -1.2575668017357622
                    },
                    {
                        "weights": [
                            0.0910333572170766,
                            -2.3370245303340456,
                            4.593790504988279,
                            -0.14032740306500538,
                            0.11836811415385251,
                            -4.563922130324694
                        ],
                        "bias": -0.9202019051230531
                    }
                ]
            }
        ]
    },
    {
        "input": [
            5.2,
            2.7,
            3.9,
            1.4
        ],
        "expected": [
            0,
            1,
            0
        ],
        "output": [
            0.01596592726316734,
            0.9730611512703113,
            0.01969601132361464
        ],
        "error": [
            0.01596592726316734,
            -0.026938848729688658,
            0.01969601132361464
        ],
        "mse": 0.00045618175543791817,
        "layers": [
            {
                "layer_index": 0,
                "outputs": [
                    0.992972989108358,
                    0.013086438007940997,
                    0.0734560616921304,
                    0.1661841198270636,
                    0.0029836772769381496,
                    0.7365440631597668
                ],
                "neurons": [
                    {
                        "weights": [
                            -0.5749052494349688,
                            -1.5921357241109386,
                            2.885967501260761,
                            1.1071271022690734
                        ],
                        "bias": -0.566035405737106
                    },
                    {
                        "weights": [
                            0.47574655647697345,
                            1.6808269783413259,
                            -2.593618770800877,
                            -0.874526777402608
                        ],
                        "bias": 0.004329727568402548
                    },
                    {
                        "weights": [
                            -3.5125081007707424,
                            -5.051425043247491,
                            5.899207712634187,
                            7.539361638769056
                        ],
                        "bias": -4.192900673986497
                    },
                    {
                        "weights": [
                            -0.3367283751796198,
                            -0.09218074805289816,
                            0.20897334421125263,
                            -0.1661460325095665
                        ],
                        "bias": -0.1954323077583293
                    },
                    {
                        "weights": [
                            -0.4734824865501739,
                            -0.6360109928063264,
                            -0.4997620762236397,
                            -0.06968986446019423
                        ],
                        "bias": 0.4143659018206728
                    },
                    {
                        "weights": [
                            2.012849221679685,
                            2.536983391096137,
                            -3.178231644597706,
                            -4.476440518608285
                        ],
                        "bias": 2.373531961801075
                    }
                ]
            },
            {
                "layer_index": 1,
                "outputs": [
                    0.01596592726316734,
                    0.9730611512703113,
                    0.01969601132361464
                ],
                "neurons": [
                    {
                        "weights": [
                            -4.2479746234615625,
                            3.60254925133292,
                            -1.902373477134057,
                            0.1647976569589804,
                            -0.3291567857923074,
                            1.0267996271884392
                        ],
                        "bias": -0.5931710575820685
                    },
                    {
                        "weights": [
                            4.177798828449121,
                            -4.10026575088136,
                            -6.257746201806771,
                            0.5295237955350399,
                            0.2966142687765607,
                            1.521221577357988
                        ],
                        "bias": -1.2575668017357622
                    },
                    {
                        "weights": [
                            0.0910333572170766,
                            -2.3370245303340456,
                            4.593790504988279,
                            -0.14032740306500538,
                            0.11836811415385251,
                            -4.563922130324694
                        ],
                        "bias": -0.9202019051230531
                    }
                ]
            }
        ]
    },
    {
        "input": [
            5.7,
            2.8,
            4.5,
            1.3
        ],
        "expected": [
            0,
            1,
            0
        ],
        "output": [
            0.013396323001503856,
            0.9643692897698336,
            0.029397288871319677
        ],
        "error": [
            0.013396323001503856,
            -0.035630710230166396,
            0.029397288871319677
        ],
        "mse": 0.0007710698581501737,
        "layers": [
            {
                "layer_index": 0,
                "outputs": [
                    0.9978175963593936,
                    0.004560424828394206,
                    0.11809633549653006,
                    0.16131179083951008,
                    0.0016508030948179388,
                    0.6961246057600893
                ],
                "neurons": [
                    {
                        "weights": [
                            -0.5749052494349688,
                            -1.5921357241109386,
                            2.885967501260761,
                            1.1071271022690734
                        ],
                        "bias": -0.566035405737106
                    },
                    {
                        "weights": [
                            0.47574655647697345,
                            1.6808269783413259,
                            -2.593618770800877,
                            -0.874526777402608
                        ],
                        "bias": 0.004329727568402548
                    },
                    {
                        "weights": [
                            -3.5125081007707424,
                            -5.051425043247491,
                            5.899207712634187,
                            7.539361638769056
                        ],
                        "bias": -4.192900673986497
                    },
                    {
                        "weights": [
                            -0.3367283751796198,
                            -0.09218074805289816,
                            0.20897334421125263,
                            -0.1661460325095665
                        ],
                        "bias": -0.1954323077583293
                    },
                    {
                        "weights": [
                            -0.4734824865501739,
                            -0.6360109928063264,
                            -0.4997620762236397,
                            -0.06968986446019423
                        ],
                        "bias": 0.4143659018206728
                    },
                    {
                        "weights": [
                            2.012849221679685,
                            2.536983391096137,
                            -3.178231644597706,
                            -4.476440518608285
                        ],
                        "bias": 2.373531961801075
                    }
                ]
            },
            {
                "layer_index": 1,
                "outputs": [
                    0.013396323001503856,
                    0.9643692897698336,
                    0.029397288871319677
                ],
                "neurons": [
                    {
                        "weights": [
                            -4.2479746234615625,
                            3.60254925133292,
                            -1.902373477134057,
                            0.1647976569589804,
                            -0.3291567857923074,
                            1.0267996271884392
                        ],
                        "bias": -0.5931710575820685
                    },
                    {
                        "weights": [
                            4.177798828449121,
                            -4.10026575088136,
                            -6.257746201806771,
                            0.5295237955350399,
                            0.2966142687765607,
                            1.521221577357988
                        ],
                        "bias": -1.2575668017357622
                    },
                    {
                        "weights": [
                            0.0910333572170766,
                            -2.3370245303340456,
                            4.593790504988279,
                            -0.14032740306500538,
                            0.11836811415385251,
                            -4.563922130324694
                        ],
                        "bias": -0.9202019051230531
                    }
                ]
            }
        ]
    },
    {
        "input": [
            5.1,
            3.3,
            1.7,
            0.5
        ],
        "expected": [
            1,
            0,
            0
        ],
        "output": [
            0.9770580348932669,
            0.030857097104264722,
            0.0004362616898181606
        ],
        "error": [
            -0.022941965106733075,
            0.030857097104264722,
            0.0004362616898181606
        ],
        "mse": 0.0004928948429741945,
        "layers": [
            {
                "layer_index": 0,
                "outputs": [
                    0.03583312076437674,
                    0.958151537756858,
                    1.4196002574569062e-11,
                    0.12512565249310165,
                    0.006802282636625267,
                    0.9999984385500126
                ],
                "neurons": [
                    {
                        "weights": [
                            -0.5749052494349688,
                            -1.5921357241109386,
                            2.885967501260761,
                            1.1071271022690734
                        ],
                        "bias": -0.566035405737106
                    },
                    {
                        "weights": [
                            0.47574655647697345,
                            1.6808269783413259,
                            -2.593618770800877,
                            -0.874526777402608
                        ],
                        "bias": 0.004329727568402548
                    },
                    {
                        "weights": [
                            -3.5125081007707424,
                            -5.051425043247491,
                            5.899207712634187,
                            7.539361638769056
                        ],
                        "bias": -4.192900673986497
                    },
                    {
                        "weights": [
                            -0.3367283751796198,
                            -0.09218074805289816,
                            0.20897334421125263,
                            -0.1661460325095665
                        ],
                        "bias": -0.1954323077583293
                    },
                    {
                        "weights": [
                            -0.4734824865501739,
                            -0.6360109928063264,
                            -0.4997620762236397,
                            -0.06968986446019423
                        ],
                        "bias": 0.4143659018206728
                    },
                    {
                        "weights": [
                            2.012849221679685,
                            2.536983391096137,
                            -3.178231644597706,
                            -4.476440518608285
                        ],
                        "bias": 2.373531961801075
                    }
                ]
            },
            {
                "layer_index": 1,
                "outputs": [
                    0.9770580348932669,
                    0.030857097104264722,
                    0.0004362616898181606
                ],
                "neurons": [
                    {
                        "weights": [
                            -4.2479746234615625,
                            3.60254925133292,
                            -1.902373477134057,
                            0.1647976569589804,
                            -0.3291567857923074,
                            1.0267996271884392
                        ],
                        "bias": -0.5931710575820685
                    },
                    {
                        "weights": [
                            4.177798828449121,
                            -4.10026575088136,
                            -6.257746201806771,
                            0.5295237955350399,
                            0.2966142687765607,
                            1.521221577357988
                        ],
                        "bias": -1.2575668017357622
                    },
                    {
                        "weights": [
                            0.0910333572170766,
                            -2.3370245303340456,
                            4.593790504988279,
                            -0.14032740306500538,
                            0.11836811415385251,
                            -4.563922130324694
                        ],
                        "bias": -0.9202019051230531
                    }
                ]
            }
        ]
    },
    {
        "input": [
            5.0,
            3.4,
            1.5,
            0.2
        ],
        "expected": [
            1,
            0,
            0
        ],
        "output": [
            0.9808379502804849,
            0.02560466814124138,
            0.00041104696421895976
        ],
        "error": [
            -0.019162049719515073,
            0.02560466814124138,
            0.00041104696421895976
        ],
        "mse": 0.00034098404656102084,
        "layers": [
            {
                "layer_index": 0,
                "outputs": [
                    0.013341474477308976,
                    0.9825796222456926,
                    3.8962080323388317e-13,
                    0.12872739933865346,
                    0.007546734327388059,
                    0.9999997951291864
                ],
                "neurons": [
                    {
                        "weights": [
                            -0.5749052494349688,
                            -1.5921357241109386,
                            2.885967501260761,
                            1.1071271022690734
                        ],
                        "bias": -0.566035405737106
                    },
                    {
                        "weights": [
                            0.47574655647697345,
                            1.6808269783413259,
                            -2.593618770800877,
                            -0.874526777402608
                        ],
                        "bias": 0.004329727568402548
                    },
                    {
                        "weights": [
                            -3.5125081007707424,
                            -5.051425043247491,
                            5.899207712634187,
                            7.539361638769056
                        ],
                        "bias": -4.192900673986497
                    },
                    {
                        "weights": [
                            -0.3367283751796198,
                            -0.09218074805289816,
                            0.20897334421125263,
                            -0.1661460325095665
                        ],
                        "bias": -0.1954323077583293
                    },
                    {
                        "weights": [
                            -0.4734824865501739,
                            -0.6360109928063264,
                            -0.4997620762236397,
                            -0.06968986446019423
                        ],
                        "bias": 0.4143659018206728
                    },
                    {
                        "weights": [
                            2.012849221679685,
                            2.536983391096137,
                            -3.178231644597706,
                            -4.476440518608285
                        ],
                        "bias": 2.373531961801075
                    }
                ]
            },
            {
                "layer_index": 1,
                "outputs": [
                    0.9808379502804849,
                    0.02560466814124138,
                    0.00041104696421895976
                ],
                "neurons": [
                    {
                        "weights": [
                            -4.2479746234615625,
                            3.60254925133292,
                            -1.902373477134057,
                            0.1647976569589804,
                            -0.3291567857923074,
                            1.0267996271884392
                        ],
                        "bias": -0.5931710575820685
                    },
                    {
                        "weights": [
                            4.177798828449121,
                            -4.10026575088136,
                            -6.257746201806771,
                            0.5295237955350399,
                            0.2966142687765607,
                            1.521221577357988
                        ],
                        "bias": -1.2575668017357622
                    },
                    {
                        "weights": [
                            0.0910333572170766,
                            -2.3370245303340456,
                            4.593790504988279,
                            -0.14032740306500538,
                            0.11836811415385251,
                            -4.563922130324694
                        ],
                        "bias": -0.9202019051230531
                    }
                ]
            }
        ]
    },
    {
        "input": [
            4.4,
            2.9,
            1.4,
            0.2
        ],
        "expected": [
            1,
            0,
            0
        ],
        "output": [
            0.9777055872105558,
            0.03061467895283544,
            0.00043313583207319785
        ],
        "error": [
            -0.022294412789444218,
            0.03061467895283544,
            0.00043313583207319785
        ],
        "mse": 0.0004781623385534483,
        "layers": [
            {
                "layer_index": 0,
                "outputs": [
                    0.03073809241982175,
                    0.9595361566380239,
                    2.2213835124029736e-11,
                    0.15643084560100928,
                    0.014386219607167258,
                    0.9999982264187294
                ],
                "neurons": [
                    {
                        "weights": [
                            -0.5749052494349688,
                            -1.5921357241109386,
                            2.885967501260761,
                            1.1071271022690734
                        ],
                        "bias": -0.566035405737106
                    },
                    {
                        "weights": [
                            0.47574655647697345,
                            1.6808269783413259,
                            -2.593618770800877,
                            -0.874526777402608
                        ],
                        "bias": 0.004329727568402548
                    },
                    {
                        "weights": [
                            -3.5125081007707424,
                            -5.051425043247491,
                            5.899207712634187,
                            7.539361638769056
                        ],
                        "bias": -4.192900673986497
                    },
                    {
                        "weights": [
                            -0.3367283751796198,
                            -0.09218074805289816,
                            0.20897334421125263,
                            -0.1661460325095665
                        ],
                        "bias": -0.1954323077583293
                    },
                    {
                        "weights": [
                            -0.4734824865501739,
                            -0.6360109928063264,
                            -0.4997620762236397,
                            -0.06968986446019423
                        ],
                        "bias": 0.4143659018206728
                    },
                    {
                        "weights": [
                            2.012849221679685,
                            2.536983391096137,
                            -3.178231644597706,
                            -4.476440518608285
                        ],
                        "bias": 2.373531961801075
                    }
                ]
            },
            {
                "layer_index": 1,
                "outputs": [
                    0.9777055872105558,
                    0.03061467895283544,
                    0.00043313583207319785
                ],
                "neurons": [
                    {
                        "weights": [
                            -4.2479746234615625,
                            3.60254925133292,
                            -1.902373477134057,
                            0.1647976569589804,
                            -0.3291567857923074,
                            1.0267996271884392
                        ],
                        "bias": -0.5931710575820685
                    },
                    {
                        "weights": [
                            4.177798828449121,
                            -4.10026575088136,
                            -6.257746201806771,
                            0.5295237955350399,
                            0.2966142687765607,
                            1.521221577357988
                        ],
                        "bias": -1.2575668017357622
                    },
                    {
                        "weights": [
                            0.0910333572170766,
                            -2.3370245303340456,
                            4.593790504988279,
                            -0.14032740306500538,
                            0.11836811415385251,
                            -4.563922130324694
                        ],
                        "bias": -0.9202019051230531
                    }
                ]
            }
        ]
    },
    {
        "input": [
            6.7,
            2.5,
            5.8,
            1.8
        ],
        "expected": [
            0,
            0,
            1
        ],
        "output": [
            0.0012242432597275967,
            0.037817008923275955,
            0.9753868370339321
        ],
        "error": [
            0.0012242432597275967,
            0.037817008923275955,
            -0.02461316296606786
        ],
        "mse": 0.0006791442422187786,
        "layers": [
            {
                "layer_index": 0,
                "outputs": [
                    0.9999674662627701,
                    9.870877775392737e-05,
                    0.9994077493112168,
                    0.1456690035127153,
                    0.000628179618787878,
                    0.013529562559830271
                ],
                "neurons": [
                    {
                        "weights": [
                            -0.5749052494349688,
                            -1.5921357241109386,
                            2.885967501260761,
                            1.1071271022690734
                        ],
                        "bias": -0.566035405737106
                    },
                    {
                        "weights": [
                            0.47574655647697345,
                            1.6808269783413259,
                            -2.593618770800877,
                            -0.874526777402608
                        ],
                        "bias": 0.004329727568402548
                    },
                    {
                        "weights": [
                            -3.5125081007707424,
                            -5.051425043247491,
                            5.899207712634187,
                            7.539361638769056
                        ],
                        "bias": -4.192900673986497
                    },
                    {
                        "weights": [
                            -0.3367283751796198,
                            -0.09218074805289816,
                            0.20897334421125263,
                            -0.1661460325095665
                        ],
                        "bias": -0.1954323077583293
                    },
                    {
                        "weights": [
                            -0.4734824865501739,
                            -0.6360109928063264,
                            -0.4997620762236397,
                            -0.06968986446019423
                        ],
                        "bias": 0.4143659018206728
                    },
                    {
                        "weights": [
                            2.012849221679685,
                            2.536983391096137,
                            -3.178231644597706,
                            -4.476440518608285
                        ],
                        "bias": 2.373531961801075
                    }
                ]
            },
            {
                "layer_index": 1,
                "outputs": [
                    0.0012242432597275967,
                    0.037817008923275955,
                    0.9753868370339321
                ],
                "neurons": [
                    {
                        "weights": [
                            -4.2479746234615625,
                            3.60254925133292,
                            -1.902373477134057,
                            0.1647976569589804,
                            -0.3291567857923074,
                            1.0267996271884392
                        ],
                        "bias": -0.5931710575820685
                    },
                    {
                        "weights": [
                            4.177798828449121,
                            -4.10026575088136,
                            -6.257746201806771,
                            0.5295237955350399,
                            0.2966142687765607,
                            1.521221577357988
                        ],
                        "bias": -1.2575668017357622
                    },
                    {
                        "weights": [
                            0.0910333572170766,
                            -2.3370245303340456,
                            4.593790504988279,
                            -0.14032740306500538,
                            0.11836811415385251,
                            -4.563922130324694
                        ],
                        "bias": -0.9202019051230531
                    }
                ]
            }
        ]
    },
    {
        "input": [
            4.6,
            3.6,
            1.0,
            0.2
        ],
        "expected": [
            1,
            0,
            0
        ],
        "output": [
            0.982481305013903,
            0.023307192861039404,
            0.000398196713968294
        ],
        "error": [
            -0.01751869498609704,
            0.023307192861039404,
            0.000398196713968294
        ],
        "mse": 0.0002834294912335343,
        "layers": [
            {
                "layer_index": 0,
                "outputs": [
                    0.0029152062645418832,
                    0.9958281573246384,
                    3.02739722610184e-14,
                    0.13005309523018083,
                    0.010282326672946759,
                    0.9999999436824089
                ],
                "neurons": [
                    {
                        "weights": [
                            -0.5749052494349688,
                            -1.5921357241109386,
                            2.885967501260761,
                            1.1071271022690734
                        ],
                        "bias": -0.566035405737106
                    },
                    {
                        "weights": [
                            0.47574655647697345,
                            1.6808269783413259,
                            -2.593618770800877,
                            -0.874526777402608
                        ],
                        "bias": 0.004329727568402548
                    },
                    {
                        "weights": [
                            -3.5125081007707424,
                            -5.051425043247491,
                            5.899207712634187,
                            7.539361638769056
                        ],
                        "bias": -4.192900673986497
                    },
                    {
                        "weights": [
                            -0.3367283751796198,
                            -0.09218074805289816,
                            0.20897334421125263,
